257 179 16
-3.991699
-2.491150
3.193664
-0.715942
-4.539490
-3.056946
-2.602502
1.488143
-2.873535
-1.899414
1.617289
-2.982483
1.597290
4.623718
3.778209
1.024170
1.931763
-4.046326
4.605713
-1.360474
-4.862758
-0.889195
3.778972
3.591003
-2.893066
0.275881
-3.333435
3.663635
-2.421875
-4.121399
1.562195
-4.397583
-3.335772
-0.480042
0.950317
-2.697144
-0.429688
4.027841
-3.793492
0.096130
0.921326
4.547866
-0.398865
-1.053772
-4.594018
2.842712
2.751160
3.351360
-3.365479
-1.960449
-4.489340
-3.114319
-0.762329
4.225762
4.627991
-2.173462
-1.494141
0.197448
-4.501648
-0.726507
1.353760
1.475830
-2.718766
1.086426
1.847496
0.505692
4.225769
1.441040
-2.706909
4.347229
3.041687
1.329026
-3.465881
-3.788188
0.047913
-0.807495
-2.981567
0.334778
-2.715454
-1.102597
2.196350
-3.681946
1.598816
-1.286230
-4.184570
2.213440
-4.215088
4.152527
4.668286
2.665750
-4.165694
2.457581
-3.635559
1.825193
3.342310
1.571960
3.681030
-3.459167
-2.710266
1.389160
2.059631
0.145911
3.776855
0.102234
1.809082
1.977844
-1.412964
3.430501
1.578979
3.450012
0.827026
-0.239563
4.664915
-4.853516
2.193886
-1.710965
4.709065
-3.906860
0.724395
4.485475
2.344970
0.015540
3.429260
-1.567112
-0.600586
-0.910324
-4.070435
1.240845
2.124329
0.232005
4.725037
-4.100342
0.112305
-4.879761
-0.404968
-4.635315
2.401145
-2.546763
1.129456
-3.477142
-2.668085
0.101021
2.141724
2.165771
-2.100311
-4.554443
-2.931824
-0.985722
-1.440735
0.443131
-1.579590
4.804688
-3.901672
1.028748
4.352061
1.410258
0.060730
-3.129817
-3.611450
-1.662510
4.943542
0.884704
1.426392
2.786933
0.505981
4.676514
-3.007202
0.125733
1.720955
4.722593
3.898315
2.220005
-4.619751
-0.237426
-4.683577
-3.593750
3.572998
4.698181
-3.726501
3.214111
2.835999
1.305236
2.892151
-4.848633
-1.695557
1.078833
4.944564
4.861755
0.762939
0.485392
1.473389
-4.829712
-2.282715
4.158764
2.601624
-1.071167
-4.891053
-4.312134
-2.220459
1.458959
1.207973
2.428569
3.428955
3.403320
-0.550230
3.472900
-0.302735
-3.196716
1.170044
-3.050537
0.173340
2.201032
-4.189758
-3.568726
3.649292
-0.370483
-0.845511
2.103115
1.998291
1.171265
-3.265549
-3.183594
3.227844
-1.972253
3.836670
2.414856
3.753277
0.265198
-1.398926
-3.420614
-0.923157
0.498962
-0.147102
-4.230957
-3.430481
2.071533
-3.765565
3.831482
0.007136
1.763306
-2.012329
2.810409
-0.555420
-3.487587
-1.430954
-4.962463
-4.530029
-3.594055
-3.361816
2.597351
2.422471
1.827393
-3.960613
4.150085
-0.992432
-2.418823
4.505615
4.542542
0.765689
1.798706
-1.524963
-2.523804
3.318568
2.443848
4.539795
-3.449707
0.480957
-0.771777
-4.906882
-4.998824
-3.700867
3.750000
-0.863710
-0.580115
-4.924927
-4.335022
-4.990539
-2.073059
-1.555481
-2.290650
-3.396264
-2.374573
3.564453
-2.620239
-0.551758
2.461853
1.449605
-1.913147
-1.260376
-4.006042
-0.267639
-2.406008
-4.963989
-0.140098
-1.804654
-3.443706
0.017090
3.060821
2.636415
4.954223
-1.628747
2.707214
3.878139
-0.711365
-2.431320
0.588989
-1.632995
-1.740112
1.809764
-2.534180
-2.024536
-0.168762
2.600403
-1.190491
3.054504
-2.561928
0.702443
3.258667
-1.370209
-1.850519
3.367623
-1.217346
-2.877869
0.778718
1.401672
-3.089294
-3.114323
-3.848877
-1.159652
0.339966
0.821228
-1.607971
1.110229
4.238841
3.292887
-1.031494
3.927068
-3.459778
0.933010
1.956482
-1.401673
-2.418213
4.778205
3.125916
-3.861389
4.335632
-1.166076
0.618050
-3.728029
-0.390930
3.761143
0.483704
3.031007
1.499590
-0.278015
3.542175
3.502197
3.339233
-2.261047
-1.378174
1.281127
-0.279541
3.133850
-2.252197
1.193885
-1.590470
0.603333
-2.560425
-3.178549
4.154663
4.700928
3.475647
-2.393361
3.765869
4.880981
2.009277
-3.555298
-1.047058
-0.842372
4.814541
-4.565755
-3.855896
-4.562073
1.676943
0.182800
-0.757752
4.597473
-2.862244
0.080261
-4.582825
4.343671
-4.586792
-4.431152
-0.722961
-2.015381
0.293405
-0.681919
-4.269409
-2.968445
3.417190
2.673340
-3.146667
1.828711
-1.398926
4.018250
3.053814
-0.376587
4.961243
0.547282
3.971863
2.591553
-3.276985
0.271301
-0.942078
-2.377930
2.533874
-4.910278
3.735468
-0.850525
1.879883
2.693527
0.979004
-4.237404
2.036148
-2.351074
3.601990
4.096985
2.347412
-1.010437
-1.917434
-0.845947
-0.298503
-4.438782
4.618530
-4.893188
2.179260
-4.205017
4.113773
-4.340820
4.522400
3.424988
-2.733373
-1.984253
2.182922
-4.275208
-3.893127
-0.470569
-2.224692
-4.170272
3.283997
1.085205
-2.853762
-4.320959
-0.578308
-3.712769
-1.938171
1.302490
3.850098
0.506591
-0.660974
-3.469238
-0.966797
-1.142273
3.049316
-2.498474
3.964253
-2.839966
-1.881409
3.710938
-2.928772
4.953000
-2.702637
-2.337058
3.216403
4.625141
-3.853149
-0.532318
-3.390196
-4.295655
-3.641992
-1.705322
2.695583
-1.575012
1.406876
-3.705750
1.704407
-4.455261
-2.907949
-1.875610
-2.261658
-3.438721
-4.352417
1.074829
3.683167
3.340476
4.438405
-1.708374
-1.906708
1.212530
-0.609428
1.351929
3.679443
4.782929
3.952332
3.795166
2.939449
1.915588
2.626664
2.174072
1.447754
-3.998108
1.184387
-3.810171
3.269999
-0.498658
2.072209
4.459229
0.348903
-1.530457
-3.070984
-2.478943
-0.453118
1.921997
4.862976
4.566956
-1.304626
-4.943779
-1.174623
-4.458618
-3.404079
0.848694
-1.971740
-4.868818
-2.742310
-2.261047
-0.783691
0.135498
3.974915
-0.288086
4.598083
-2.938232
3.065186
-4.408569
-0.750695
0.994063
3.069763
2.958984
-4.230184
3.002930
-0.558777
-4.692078
-0.771962
-3.288574
0.118103
-3.438416
-0.457764
1.766052
2.294530
1.987392
-4.776326
4.673462
-4.306641
-0.225828
-4.871521
4.218444
2.655334
1.724548
1.881104
2.809448
0.350446
-1.858826
4.246521
0.339661
-4.532166
4.957101
1.610866
2.135010
-3.431396
-2.243210
-1.811829
-2.457581
4.547217
1.619263
-0.153198
0.710369
-3.143921
0.765686
1.293741
0.242615
4.267883
-2.832649
-3.298035
-1.077881
-1.776428
2.163085
0.849915
0.661128
-3.693848
-0.045471
4.802902
-4.245605
2.818260
-2.354416
2.721558
0.985413
4.224854
-0.119019
3.385925
-3.340469
4.844971
3.189961
3.923950
-3.491516
3.115540
-1.725159
-1.329041
2.414249
3.728943
-4.866943
0.926514
0.380030
-4.033813
-0.976562
0.437622
-0.664978
3.530591
2.355691
4.413102
-0.664062
-3.799438
0.956968
4.867578
0.721436
-1.390686
-1.021728
0.260010
0.788269
-3.532410
1.504859
3.759766
-0.448913
-4.461975
-1.241760
-3.238831
1.111775
3.679199
1.459045
-0.352478
2.427368
1.266172
0.573730
-1.894554
-4.682156
0.304463
1.346436
-2.409455
4.772341
-2.465210
-4.822717
4.102478
-2.127110
1.892395
-1.397385
3.131409
-2.727051
1.540527
3.172068
-3.838501
4.350281
0.889587
-3.829041
-4.024658
3.576660
2.847312
4.435048
-0.485840
-4.497955
-3.378840
2.668465
0.787354
-0.769104
-3.440032
-1.689148
1.694641
1.183773
1.749573
3.235795
3.570862
1.905823
2.719116
-4.349670
-2.734121
-3.355672
4.496765
1.951970
4.563599
2.784511
1.985474
1.711425
-1.212769
-0.913933
-2.252197
-4.317627
-2.659607
-0.685425
-2.521294
0.419615
4.060974
-3.532558
3.932800
-1.288146
4.176592
-0.876770
3.264771
-0.119629
-0.411682
-3.222961
-3.652649
-0.994569
-2.417603
-4.779053
-1.871033
-0.862085
0.275069
-0.965271
-3.307800
-4.467306
-1.708679
2.445068
-3.119812
-3.816700
-4.437561
-4.777527
-1.139527
-2.941284
-0.775757
-4.843532
-3.083409
-2.779561
1.341248
3.676147
-1.021116
1.711121
-4.090577
-3.818054
1.598511
-2.869568
-1.258850
3.634443
1.695557
-1.571960
3.071594
-2.985230
-0.624258
1.317592
-1.299744
1.089783
2.720779
-0.815430
-2.518616
-0.825402
-0.277100
-1.373291
2.955547
-4.200745
-2.390747
2.621561
-2.940979
-2.695313
4.946587
-4.349976
1.357727
-0.336304
-3.158570
-0.899963
-3.793218
2.319641
-1.659241
2.223861
-4.828186
-3.731422
-3.043197
-3.508301
-2.499084
-2.602844
-1.381226
-1.824036
-3.019729
1.710815
-1.590007
-2.095947
-0.637512
4.024964
0.574951
1.358337
-3.431088
-3.331299
-1.062012
0.141907
0.339747
-0.223694
1.997681
-3.120117
3.175049
-0.278918
4.019204
3.625444
-0.630493
-2.745056
-3.166262
-2.396826
3.960876
1.919861
2.854309
3.520813
2.396850
4.290160
4.626502
-3.983459
-1.258239
2.608948
1.044312
2.125244
-4.805583
-4.617004
-3.940125
-2.991638
0.961609
-3.505251
-0.647278
2.498757
2.566989
4.402363
-4.887390
2.314666
4.920656
1.965942
-1.254601
3.346252
3.701137
-1.480103
-2.987350
-3.868408
-0.748901
0.665283
1.643138
-4.847107
3.347473
3.429260
2.618103
1.451721
-3.356323
-1.693398
-0.371165
-2.436523
0.426361
-0.265741
-0.636283
-1.481934
-0.180115
-3.245025
-3.077087
-1.981506
1.480098
0.816345
-2.106918
3.857422
3.784485
-2.671509
0.700684
1.636302
1.497538
1.459045
-4.747554
0.834656
4.247524
-4.612427
-2.722779
2.337341
0.004035
-1.638489
4.523926
1.408691
2.407532
-3.918999
4.647215
-4.752808
4.394383
1.424866
0.234986
-0.844160
-4.102478
1.738586
1.279297
0.308228
-1.260986
-3.520813
0.404357
3.457336
-3.980713
-0.448608
1.156653
-2.857865
-0.682373
-0.771484
4.645548
-4.853821
1.219788
1.782837
-4.935170
1.336670
-3.920593
0.446777
-1.260071
3.125610
-3.182765
-3.760899
-1.859761
1.515808
0.565796
2.422487
4.984436
2.447204
0.976868
-1.452332
3.616028
-1.714172
-0.007525
-3.345032
-0.578308
3.554077
-3.060303
-4.806387
2.948452
3.959961
-2.368774
2.799514
4.845886
2.789612
1.417640
-1.640320
2.015076
3.707806
-0.650330
-1.142578
0.215250
4.153748
-0.281982
1.638787
3.704224
-1.976929
-3.475037
2.663268
-3.514099
2.294428
-4.074707
-2.902832
-3.308060
-3.817749
-4.885597
4.422318
-1.815491
-3.144836
0.923462
3.611755
0.471496
1.304002
1.012268
0.977742
1.914368
-2.199707
-4.526977
-3.561401
-3.334045
-3.609311
1.653137
0.578308
0.597839
2.357569
0.019226
-1.968689
-3.456421
1.733704
3.862012
-0.251731
4.175370
2.930908
0.667419
0.113463
4.794946
3.541565
-2.044067
0.671082
-3.479919
-3.619690
1.409911
-2.979089
-0.313110
3.825684
-1.903381
0.276184
-1.400452
4.495259
2.602844
0.152588
-0.881958
1.532593
-1.109011
0.407104
-2.106956
-4.143826
-4.305523
4.032288
3.346161
4.925539
-1.756897
-0.734887
4.051514
-1.159092
4.189758
3.167435
3.883972
-4.780884
-3.544312
4.071421
0.816956
-4.537964
0.902100
0.338135
-1.883545
1.460266
1.579917
-4.821238
4.181824
-2.370880
1.373358
-3.551933
1.033325
-3.342652
1.026520
0.953064
-3.195496
3.258663
3.769836
1.064469
2.548523
-4.810791
-0.602722
4.497375
-1.322683
4.752543
4.541626
4.517888
1.330566
1.382839
2.608032
1.243896
4.027100
-2.254265
0.964966
1.440430
4.844055
-0.546264
-1.835869
-2.102663
4.502869
2.095494
-0.540466
-4.916991
-4.348799
4.606628
2.085266
2.638855
-1.433411
3.343811
0.349121
3.266601
3.882751
-4.572449
1.116333
-3.429223
-2.860917
-4.093933
-1.164856
-4.607382
-3.836060
-2.484436
2.470398
-3.588124
-4.335327
-2.811279
2.225341
0.921936
0.516968
-1.634303
-1.170567
-1.548787
1.967773
3.168335
3.410341
-1.372070
-2.282410
3.500671
0.155640
3.699341
0.973816
-4.870196
0.588379
-2.264709
-1.178284
3.855591
1.257761
4.424282
-4.778137
-2.297058
3.245681
-0.169983
-1.046753
4.329627
-3.837891
1.751709
1.788860
-1.939087
4.373779
2.177836
-2.655640
4.067078
-1.642463
4.664917
-4.456482
-3.511658
-1.009217
2.466736
3.605769
-3.204956
-2.611084
0.184676
-1.615295
-1.890907
-1.290268
4.283142
0.355835
4.001465
1.726990
4.805603
-4.920364
-4.100952
3.034627
4.525757
1.829834
-1.830139
-2.134705
-2.782898
-4.908749
4.945068
-3.837585
1.554565
-0.901098
-2.257690
-4.326172
2.222290
0.760498
-2.047717
0.883218
4.794877
1.268921
3.251648
-0.001589
-4.076819
1.719055
2.002563
-2.005310
-4.441223
3.038940
4.705200
-1.462060
2.280579
-4.446411
-3.438721
2.419434
-0.886536
-1.544475
0.216064
-4.175415
0.574036
4.720764
2.735898
-4.593506
-1.995872
1.058200
-4.109600
3.816833
4.538788
-0.289610
3.783264
3.004737
-3.379211
0.163235
-3.054504
-1.709885
2.665710
-1.540222
-3.132324
0.756297
-2.976685
2.986145
0.119934
1.656494
-0.776672
2.018127
-3.932168
4.839711
-3.992310
4.182159
-2.752314
2.347420
-2.598877
-3.546204
-3.358550
-1.016846
3.427429
0.238948
0.312805
-0.115340
3.030396
1.048279
0.516663
-1.780701
1.767222
1.236918
-2.736206
-3.489619
-0.176086
2.652370
3.068237
-1.492310
-3.048706
-2.123955
-0.289307
-4.740906
-4.177551
-3.591308
1.051094
2.712095
0.435486
-4.252163
1.402283
3.803102
1.103472
2.633667
2.180786
2.832336
2.506104
-4.920959
-1.860962
4.938354
-3.343201
-0.008545
-4.999390
-1.517602
-3.169755
-2.799072
-1.094055
3.122721
4.718323
4.905701
1.280212
1.615429
-3.571167
-3.050842
-1.744385
-2.512512
0.078125
-2.775355
-1.325901
-2.488728
0.436401
1.522522
-0.058287
0.624084
2.843017
2.132874
-4.812622
1.956787
2.732239
-4.496051
1.800232
4.249573
2.369690
-1.680298
4.399850
4.812771
1.355286
2.177429
1.885513
0.651550
2.459412
2.309668
2.492676
-0.352478
-0.662617
1.008606
-4.154968
0.536906
-2.196655
-0.474243
-3.850410
-0.233459
-3.137512
1.492920
-4.405824
-2.695312
1.659052
0.408630
1.806030
0.423629
4.411011
3.164940
-0.956100
-2.946167
4.888306
4.375305
-3.823853
-2.711182
-2.494827
1.893311
1.552388
-4.470520
-4.030762
-1.164245
-1.993408
1.200867
2.440799
2.420654
-2.118530
0.801697
2.623377
4.936523
1.084290
-0.883179
3.378601
-2.848804
-3.745688
2.401994
4.421082
-0.525208
-1.506105
1.329370
0.660095
1.190796
2.926941
-3.326111
-3.255310
3.062743
-1.849633
-4.943848
0.381165
3.636169
-1.539001
-1.623840
-4.049052
4.541016
-0.563965
3.933716
-4.789429
-4.887087
-4.919739
-1.466697
-4.079434
1.645405
1.449280
4.182953
-3.538817
1.565857
-4.697289
-1.464233
-4.248997
-2.091370
2.052017
-3.058167
-2.590332
4.297180
1.788096
0.495300
-1.717529
-4.150391
-1.655273
-3.680725
-2.132568
-3.746010
-1.360545
3.842773
1.046783
-3.669062
-1.292716
4.567261
-0.004944
4.576630
3.469849
-1.818542
-2.935490
4.392700
-4.476607
2.835388
-4.599915
-0.631409
1.315918
2.390391
-1.986959
0.848694
-0.530025
-1.559143
3.401882
-1.243896
-0.584107
-0.034485
-2.340935
0.765686
-4.757690
-1.653748
0.659790
0.101082
3.341978
0.642395
-2.463527
-2.278442
-1.941222
-1.101118
1.960144
-2.135620
4.389648
-1.773987
3.096619
4.497986
1.799926
1.739502
2.297668
-3.246460
-1.787683
4.672957
1.584473
-0.003052
-1.794271
-3.835449
0.193787
2.402039
4.701671
0.594788
0.842896
2.403259
-2.458191
-2.532044
2.266149
-2.689732
-0.869161
1.550903
-0.419312
-1.399839
0.041809
1.734008
-0.950012
3.592529
4.493408
1.208191
-1.204119
-0.168457
-0.768127
-3.198242
2.067871
1.479929
-4.776158
0.289917
4.502869
3.618606
-3.971863
-0.509644
2.071326
4.631958
1.989441
1.938702
1.616516
1.917114
4.244486
-0.922852
-0.992737
1.315606
-2.125854
3.406677
-0.792847
-4.427186
-2.479553
-2.996099
2.044373
1.938782
-4.251664
3.732300
-3.082924
4.830338
-3.013611
2.946777
2.438354
2.856140
-3.108521
-1.983657
2.661743
-3.434490
0.863647
-3.141479
-3.545837
-3.594971
0.900879
-2.315365
1.573486
-2.975769
4.801941
-2.370519
0.016785
-2.805481
-3.201904
-2.889099
-3.800952
1.661111
3.670915
-2.279053
4.529724
4.644407
-4.598669
-3.535461
-2.056885
0.491028
4.568176
4.161072
3.948364
1.798743
3.073730
0.813904
-0.235596
0.144348
1.076050
-4.260539
3.096619
0.243530
-3.629761
-4.522095
0.121152
2.005005
-1.228050
-3.412930
-2.757366
1.638184
-1.638886
-2.373350
-1.833801
-3.377709
1.981812
-4.101292
2.905273
-4.957260
-3.879089
4.134216
0.192261
4.341502
1.793823
3.493958
-0.050354
0.675049
-1.062012
-4.320984
-2.674843
2.384572
-4.689331
2.793304
4.851141
0.231942
-1.356201
-2.908997
4.478669
-2.298889
-3.839111
-1.350407
-4.564209
2.896439
0.521851
3.979797
0.531311
-3.340454
-3.743337
2.545207
-3.618164
-2.092830
-4.263000
-4.468297
-0.209656
0.609436
-1.206970
3.057319
-3.392639
3.564148
4.965515
3.667603
4.613716
-2.207033
2.525024
3.566746
-2.568970
2.017213
3.294634
-1.636963
-0.322876
1.517639
-2.744446
-4.561462
2.174683
0.683898
-3.715820
-0.740967
-3.471375
4.569129
0.572005
-2.070312
-3.016052
-0.271444
-2.511902
3.513184
0.675659
-0.123768
-3.992310
4.025574
2.898254
-3.989258
-3.050232
-0.099879
-1.070469
-2.566243
1.988831
2.738647
-0.829161
2.808838
1.152954
-0.837402
-1.438599
-2.578430
2.653503
-2.437030
-2.160034
-3.576965
4.141846
0.614929
-2.790396
-0.290989
-0.546875
1.232300
-0.450913
-1.441040
-0.097656
4.914038
4.598083
-0.574646
4.174419
-3.364563
0.611877
-4.888204
-4.003601
3.557739
-4.877632
-1.073303
3.284912
4.104004
1.374206
1.378479
-1.573980
3.442993
1.788025
-4.054215
3.265686
4.858055
-4.371933
3.002930
-2.142944
-0.738831
1.423035
-2.002258
-2.456069
0.739136
1.750447
3.858337
-3.180237
0.951844
1.121216
3.067627
4.412540
0.186462
4.350281
-0.335693
-1.475744
-2.113953
-4.064331
-3.500366
-3.692017
0.463879
-1.990317
-1.938826
-3.348694
-0.785217
-2.173830
4.151026
0.314941
-3.863831
1.545410
4.898376
-3.495178
0.473022
-4.123498
1.920471
-0.073852
3.796082
3.968201
-3.226624
-2.638225
-3.569946
-2.380066
1.176453
-1.950378
3.040159
1.528015
-0.178550
-3.792264
0.194294
1.976929
0.863556
1.265871
3.695373
-3.968225
4.753418
2.618069
-1.449585
2.988297
-4.229736
-4.662781
-0.703430
4.379649
-1.853333
4.472046
3.589478
4.978333
0.521545
1.964417
-3.189675
-0.446544
-0.017395
-3.911713
0.500555
-0.717155
0.688477
-3.211426
2.621064
2.372131
-2.564087
-3.789982
1.844177
1.662003
-0.520935
-1.321411
4.738464
-4.909058
4.916941
-1.640584
-2.414551
1.276006
0.947876
0.180141
1.294556
-4.131470
0.348206
1.458808
2.011108
1.098938
-0.590515
-0.665588
-4.805839
4.585264
-2.273254
2.697300
-3.575745
-0.889892
-4.884687
2.651367
-4.584656
-0.077820
-4.110107
0.865173
-1.724243
1.120604
-3.898621
-0.621643
3.595886
-2.319299
3.536178
1.419678
-3.482971
4.658671
-3.512878
-2.994385
-1.851807
0.352916
0.665588
2.477112
3.201599
4.323730
0.754089
-1.974574
3.639003
-2.049886
-4.191284
2.267456
1.335756
-2.085571
4.477234
-2.062378
-3.026733
0.030212
0.126953
-2.254534
-1.018677
4.442444
1.226807
4.510193
-0.663931
-0.893406
-2.704468
4.505310
-0.392624
2.917480
-4.269714
-1.794030
4.938049
-4.874268
-0.193562
-2.148438
-1.313477
2.540385
3.288574
4.337769
-4.362495
1.340027
1.594849
-4.755859
-3.413392
4.321899
-4.579351
-4.717712
1.906128
1.363571
-3.346558
-0.101661
-2.481674
3.431702
1.869202
-4.468079
0.075073
-2.515869
4.246506
-4.323120
-4.796184
3.489685
-1.418152
-3.194275
-4.192505
0.258484
0.110477
3.219604
4.054260
1.587524
2.308436
4.886169
3.825989
-0.694580
4.012756
-2.671497
-2.555198
4.770158
1.172485
-2.372437
3.888487
-4.632239
3.537903
-4.400330
1.504517
-2.270203
1.605530
4.213561
3.038367
3.745728
4.129334
-1.693726
-4.390869
1.751404
1.477681
-4.335327
3.961792
-1.366272
-4.624023
-0.469363
-1.044006
4.909340
-0.384671
-3.400676
-0.045776
-0.870758
3.553468
-0.451050
3.413367
3.509827
1.461758
-1.772156
-4.312729
-3.589478
0.412293
-1.538696
2.589183
4.789734
0.575256
2.637329
4.402466
1.633606
-1.783752
1.075462
-2.650828
0.859680
-2.457245
-1.758966
1.669014
-4.052429
1.026855
3.047394
-2.895508
3.899231
3.748775
-3.292236
4.830643
1.094360
2.270203
-1.755066
-2.058105
2.605845
2.510417
0.649719
-0.990230
1.521301
-1.530675
-2.598572
-3.378907
-0.121765
-4.520806
3.198547
-0.445557
-2.297668
-0.658569
-2.077263
0.926817
1.783142
-3.711696
-1.646729
0.260011
0.722307
4.055176
-4.656067
-3.723450
-2.269592
-0.329590
2.770691
-1.772157
-1.971741
3.778687
-4.929810
-1.427880
1.896468
-2.696838
-1.227112
4.780436
0.637512
0.467224
-3.348694
3.302440
-3.926697
-0.417786
-1.395569
2.847595
1.319885
1.902684
-1.685093
0.901774
3.304138
3.858337
-0.057981
0.127563
4.237060
2.981873
3.307800
-1.690369
3.387451
-1.170550
2.649536
-0.872192
-4.250183
3.256836
-3.006766
-3.090977
-0.830994
-4.765015
-3.209702
2.984619
-3.513184
0.643409
-4.245911
-3.462219
4.249187
2.710876
1.875305
-2.312216
4.666443
1.858215
-3.230293
-4.109497
2.016602
3.012695
-2.584535
0.727234
0.648615
-2.087402
-0.861511
-0.892289
-4.331970
-0.600319
4.521195
-4.522705
2.844849
-2.554016
-3.719482
-1.383362
-0.170913
2.306519
-0.768779
2.515869
4.608459
-4.880981
-0.433960
4.259338
3.161624
1.253967
-3.656311
-3.319702
2.735072
-3.268738
3.198853
-1.382751
2.326965
3.016675
-4.652060
0.577348
-3.056641
0.509644
0.348448
-1.397070
-2.818604
-3.965454
-3.127746
4.310303
0.712891
4.648742
0.558204
3.426514
-2.779846
1.078491
0.830383
1.454773
3.322469
1.098633
-1.744690
-1.538391
-0.725708
-1.836550
-4.345703
1.287209
3.274081
-4.391887
2.877502
-4.211823
-3.544920
-0.287171
-1.199975
-2.741699
2.859768
3.998413
-0.206894
0.899048
-1.649780
-0.027466
-1.528859
1.722717
3.564758
4.731140
2.652893
-4.871216
2.467957
0.673240
-3.205027
-3.086548
3.888886
-2.362909
-2.696830
-4.797974
-3.072571
2.953705
3.764648
2.169800
-2.978825
-0.871887
-3.610519
-1.639404
4.432373
-4.494019
3.027039
-2.584890
0.880473
3.166504
-4.483272
4.011841
-2.590855
-0.991211
-1.463929
2.873230
-1.574944
-0.878601
0.852051
1.578064
4.510498
-3.282402
2.559508
-4.934082
0.204319
-4.602356
-2.496947
4.613298
-1.720581
1.700745
4.945374
-0.981445
-2.615662
-0.491638
-0.466920
1.085510
4.103088
-0.636597
3.628272
-3.283586
-3.500977
4.364014
1.031962
0.115356
0.406494
-2.498474
-3.612233
1.983337
-4.870605
0.809936
-1.340332
4.690857
0.098790
1.618129
3.865642
1.148987
-0.953369
-3.583372
4.960632
0.837402
3.266907
-2.955933
3.778076
0.585632
0.510358
0.518799
3.565369
2.955627
1.123962
-3.181632
-3.485874
0.028992
-2.129211
-4.495102
-4.837341
-4.577026
1.121314
-3.628845
1.800537
2.318951
-3.672485
4.350586
4.881388
0.445557
3.794556
4.082329
-3.238831
-0.537720
0.060730
4.448852
1.094666
2.140925
-0.338440
-1.814270
-4.838822
4.686279
-4.479103
-2.506088
4.958496
-3.019104
-1.035767
-0.047913
-2.093506
1.089463
-3.994141
-3.911479
1.889343
0.210876
1.465454
3.100586
4.825439
-3.721310
-2.519531
-4.141541
3.773499
-1.115636
-2.025452
-0.538940
-2.348328
3.367004
-4.353015
4.663736
2.635759
0.872498
3.041992
0.889219
4.270349
-1.802368
4.265747
-2.670898
-4.478149
0.234070
-1.094361
-2.544824
4.342651
2.820130
4.725037
-2.928772
0.630798
-1.214580
0.684814
1.735229
-4.173584
-4.781189
-3.137820
3.012085
4.698159
4.055026
2.828877
-0.281067
3.175872
-4.711607
1.032409
3.967567
1.627808
3.381924
-3.200378
-2.487778
-3.295593
-2.940368
1.430969
-1.549306
2.377014
3.850403
0.042419
4.468079
2.670288
-2.821960
0.659812
1.129995
-3.912964
-0.357635
-3.875666
2.882699
-4.520569
-0.377259
-4.441009
-4.947815
2.467041
4.242855
-3.650208
3.379533
0.471802
-3.287659
4.256592
0.711670
-4.571584
0.012553
2.137451
-3.148738
-1.777649
-3.725499
4.508972
0.985107
-2.042236
3.028022
-0.718384
2.843018
0.049744
-4.819336
3.197395
2.420347
-1.729736
-4.834743
2.989502
3.713685
4.787249
-0.959473
-2.530212
2.781677
-2.828674
1.655884
4.358826
-4.570008
-3.277283
-1.811218
-3.828430
4.840125
-3.330888
-4.630127
-1.928101
4.420634
4.992676
-0.091858
3.805542
-3.588124
0.010986
-2.973328
1.341858
0.898743
3.954162
-3.091212
4.754116
-3.345052
2.504883
1.867981
4.107363
-2.038879
-4.990235
2.052002
-0.693665
-1.433105
4.213257
2.488813
0.478516
-2.432556
-0.397644
-0.670776
0.445993
-2.139439
3.430176
-2.029724
1.433242
2.295837
3.473511
1.007788
2.438049
-2.087708
1.577984
-0.830688
-1.244812
3.505045
2.169800
1.505127
0.296624
1.101685
-0.571594
0.381775
0.273131
-4.079590
-2.216070
-3.678894
0.592651
-3.662064
4.308167
-2.837257
-3.852523
-2.046509
-2.947083
-1.192017
3.544922
2.839355
-1.090102
0.435486
-3.113445
-1.040039
0.433960
2.001648
-3.663025
0.196533
1.083072
-3.158569
1.866150
2.232971
2.793971
-2.824402
-2.314148
4.637756
4.990234
-4.656665
-0.052146
4.449418
-4.923401
-1.430969
3.664488
1.554895
3.484497
0.075989
0.614319
1.336670
-2.671204
4.362182
4.793738
4.409790
1.744385
-0.552979
-3.196106
-0.416260
2.925435
3.904114
4.244385
-0.463562
2.157898
1.490476
-1.169128
-4.991172
4.181979
1.190998
-2.353210
-2.378327
0.452883
-4.533692
-0.421777
-3.031616
-0.892674
4.579468
3.701798
1.348877
3.081665
-0.286560
0.908885
-0.972290
-1.003418
2.790833
-3.781433
-1.234741
-4.146729
-4.251687
1.529164
-4.131165
-1.562164
-2.922297
-2.284233
3.766479
3.810669
-1.373077
-4.380798
-3.541260
-4.824223
-0.126648
3.711564
2.162781
2.390747
3.526306
3.307190
3.462779
2.338603
-0.801087
-1.426631
4.262695
-0.247105
-1.383362
2.011108
-1.099548
0.936042
-0.044250
2.805786
3.662109
0.467224
4.087898
-0.866701
-3.920593
4.598545
0.994873
1.118775
2.297319
0.367432
-2.176819
-3.987732
-2.261963
4.789429
-1.375732
2.128295
1.664734
2.691345
-3.638000
3.119849
0.440169
-2.255554
-3.664246
-0.884237
0.497742
-4.535522
3.389893
-3.495961
-4.609070
2.338562
0.781555
2.258911
-1.580811
0.129613
3.492519
-4.505330
-4.957886
-0.584412
4.000857
1.633911
-3.952942
1.432800
2.714844
1.604919
-3.435669
2.274885
1.896667
2.102966
1.271973
-1.445618
4.877756
-1.185765
1.108093
-1.539001
-1.037461
-1.022644
1.795349
-2.586877
4.699402
4.922791
-0.519795
2.709045
-0.745239
-4.917501
3.917542
4.696045
-3.208625
4.298096
4.145813
1.264343
3.658141
-0.746765
-2.439153
1.946411
0.999451
1.806075
-2.783203
-2.640419
3.208634
-4.442444
-2.352295
2.491760
4.025574
-2.001953
-4.957900
-2.021484
-0.862163
4.462585
1.458130
-1.571350
-2.725525
-4.418945
-1.218259
1.864014
-1.575317
4.732361
2.601710
-0.664368
0.956116
-2.914124
1.342468
-1.224048
-3.554648
-3.217513
0.964050
2.155457
4.437498
3.804041
0.538025
-0.001526
-4.860535
-2.749939
-0.983582
2.328491
2.866859
-3.903809
-1.495056
0.098572
-2.124329
4.815063
4.320393
-3.824768
-0.093994
4.603577
-2.633667
-0.066836
0.403442
-2.730125
-1.578824
4.531452
-2.926941
3.133148
1.146242
0.907898
-1.922936
-0.161133
1.884121
-2.381592
-1.117844
2.708130
3.932800
0.483398
-0.701223
4.751282
-4.833984
1.201477
4.414063
-3.657837
4.293518
-1.067177
-4.587779
2.058105
-3.094757
3.915777
-4.551383
-4.071350
-4.067444
-2.641387
-3.634949
1.705627
-2.935490
-3.930969
0.285966
-0.285339
4.633789
-3.070068
3.213501
-3.144887
-2.558248
-0.793152
4.126042
1.290283
1.367885
-0.587769
-3.503113
-1.555481
-2.553338
-2.439270
-4.109802
-0.216064
1.764832
-1.150749
0.961607
1.028748
-2.877040
0.273438
0.818788
1.320757
1.744995
4.893799
-3.453674
-0.169983
-4.358521
-4.937439
-0.296327
1.650696
-0.556030
-3.575134
-4.392663
-0.963944
-3.480835
3.105164
4.179545
0.230408
3.374329
-2.304077
-3.603382
1.525269
-1.229248
-4.831848
-1.515503
-4.719238
-3.160182
4.744350
2.794780
-0.624390
4.515686
-1.006773
-3.005066
0.301208
-1.401672
3.606567
0.246582
-3.755188
2.749128
-2.072144
-1.355896
1.751709
-0.220947
-0.708792
-1.925511
0.536804
-0.588989
0.811294
-2.885132
-2.002258
-3.036096
-3.442383
-2.136841
-0.015034
3.613281
3.098755
-2.561239
-0.494385
2.000427
1.565545
-1.761475
-2.440186
0.241394
-0.711366
-0.980835
0.268977
-3.128357
4.875793
-4.169572
-1.635437
-1.288795
-3.603805
4.390259
0.596619
-3.597412
-4.274597
2.489929
-1.870132
-1.984558
-0.841411
4.910583
0.874023
-3.970031
-2.467346
-1.210022
2.696536
-1.987610
-4.260254
2.194214
-3.057165
-3.706665
4.654236
3.728333
-1.144104
-3.035571
-4.461631
-4.004561
-3.547668
3.500671
0.393614
0.690943
-3.583679
-4.671936
-2.490539
-1.688538
-3.424072
-3.358460
-3.717309
-0.204163
1.525574
-4.207764
0.186768
3.733826
2.922078
0.551453
2.469177
-3.867187
1.241150
-0.432437
2.790527
-3.951133
-0.165860
-4.671428
-0.284729
4.681610
-0.650023
-1.074524
-2.392602
1.089783
1.832851
1.984558
2.194840
1.393127
3.439636
-4.012756
3.590159
-4.159851
-4.106445
4.385071
1.719666
-0.005798
3.217468
-2.238442
1.408010
3.781738
-3.857086
-2.643976
3.528145
-4.090576
0.075927
-2.558074
-0.736389
-3.500061
-1.591496
1.268311
2.762162
-4.234009
-2.059021
1.927490
0.556641
1.533763
-2.865560
2.383728
2.504033
3.413086
-4.713963
-4.367371
2.411499
-3.529358
2.565681
0.084534
3.253784
2.149353
-1.489563
0.448982
-4.439089
-0.684509
0.175938
-0.119324
3.182679
3.214373
-3.523865
2.359619
-4.516602
-4.926147
0.566406
2.853699
0.022582
0.443726
-3.659668
3.336792
4.788855
-1.418656
1.093140
1.322021
4.012919
1.386108
0.621643
0.770264
-3.150502
3.760071
-1.578979
0.754699
2.318115
4.389648
-4.477626
2.159511
0.692119
-1.343079
2.541504
-2.064207
4.218140
2.149048
0.495911
-3.390503
-2.912598
-2.641296
1.946821
-4.622498
-1.816101
1.418457
-0.928040
2.084787
-3.979954
-2.313843
0.106506
1.986831
-0.274658
-1.013489
0.842688
-0.530396
-4.768066
-4.689411
3.100281
-0.028381
0.648600
3.904114
-4.817200
2.499383
0.154114
4.191895
-1.373901
-1.951600
-0.267029
-4.057500
-4.975586
4.040833
-4.972489
3.005371
-3.836403
0.697953
4.147644
0.411072
3.472290
-1.348877
-4.723511
-1.830459
-1.573181
4.150960
2.801819
-1.048584
0.477295
1.361389
1.165161
2.857059
4.057312
-2.125244
0.430603
-3.054113
1.235046
2.717285
2.657166
2.367859
1.572583
3.162271
3.137468
-3.096313
-4.243164
0.066771
-4.464697
-4.272461
4.558716
-2.765808
-4.847107
-1.794434
-0.309449
-4.875451
-1.100159
3.540650
-1.882935
4.044189
-3.159485
3.048116
-3.610535
-2.360229
3.568115
2.091370
-3.441470
1.165771
3.956582
-1.226651
0.236714
-4.323425
2.144684
3.695070
2.350464
2.956519
-1.844788
-3.656956
1.202087
1.692520
0.263062
3.300781
-3.689575
-0.064626
-1.249084
4.647522
0.687561
-4.955444
-1.456909
1.341858
-0.949074
4.616933
-4.278870
2.233307
-1.458979
1.061104
-3.329163
2.832580
3.682465
3.108826
3.967285
3.883358
1.547546
-4.200729
-1.940308
2.746582
-0.258789
3.556213
-1.176198
4.565470
2.680359
-2.636958
-3.974609
-2.436741
-1.596069
0.451660
2.805176
-1.353692
2.237549
3.661499
1.170959
3.177185
-1.142204
-4.701845
3.635254
-3.648525
-0.245361
-4.055785
0.031389
-1.032715
-3.680725
3.530273
3.483887
-4.305420
-2.644043
-1.028749
4.889526
-1.842651
0.338745
-2.320520
-0.546159
1.137085
4.325562
-2.758321
-4.954529
4.416809
-4.364014
-3.213978
-4.507751
-1.827087
2.926941
-2.307434
-0.938721
4.713048
3.195888
2.073955
-4.912415
4.377441
-4.525755
-1.829529
-1.535950
-1.589661
3.173828
-1.180115
-4.161682
-3.387347
2.651367
2.787476
2.613220
2.625122
-1.445792
4.606167
4.805603
4.534912
3.084548
3.052063
4.835205
3.744605
0.616760
3.643494
-4.716877
0.260925
4.154968
-4.594015
-0.195313
-4.321899
-4.725349
-2.514038
4.894714
4.403381
4.112853
-4.816589
2.160151
3.162842
0.761719
1.931197
4.675903
-1.730690
-4.759811
-3.691711
-3.522949
2.910156
-3.404846
0.176697
-0.242934
2.341919
-1.260112
-2.073975
-1.780396
-0.189209
3.768616
2.257385
1.031803
1.006470
0.132446
-3.229065
-3.695898
-0.136108
-3.802795
0.683899
-1.813660
3.526929
-3.251609
-4.010359
-3.358154
-0.718994
3.411497
2.347742
3.954163
1.274414
-4.262390
0.180664
-2.959595
-0.164490
4.528846
-3.201904
-0.375976
1.200867
3.781128
-3.317871
3.303853
0.465698
3.326721
0.422668
1.799316
-4.431765
-2.116089
3.112771
-3.281705
-4.872234
4.929810
-2.699372
0.404360
-2.077332
-2.555261
1.158142
2.682766
-3.114929
3.294693
-3.775940
-2.057190
-4.676514
-2.458730
-3.386230
0.174866
-1.713867
0.123291
3.436890
0.006104
-3.184182
3.668752
-4.329224
3.632843
-2.092218
-4.662162
2.497559
-2.975830
-1.832366
-2.754517
-2.544556
4.694820
3.377380
-1.752303
-0.281372
-2.697144
2.827454
2.962036
2.822215
-3.699300
0.156860
0.272893
-3.873901
1.224147
-0.830994
-3.002320
-0.619812
-2.935723
-2.789917
-0.892334
-4.377441
-3.186950
3.895943
-3.408815
2.804260
-2.111660
-1.554565
3.662415
-0.583845
-3.538208
2.088013
0.865784
4.353638
-0.947876
0.600281
0.640868
-3.385010
4.949036
2.539978
2.902564
4.638167
-0.976257
-2.658691
2.174540
1.279602
-1.305542
0.626221
3.057689
3.813782
4.205017
-0.382691
4.927063
-4.552002
-3.731776
-3.570469
3.544292
-2.441711
0.133667
2.259829
-0.027771
-1.379700
0.146484
-0.323792
4.206848
-0.077820
3.846845
-3.164978
4.557800
3.407898
-0.278015
0.426462
-0.318455
1.962280
-2.456970
0.746597
4.640198
-2.551880
-4.519555
-3.427734
-2.376709
-3.205647
3.406677
2.580566
-1.171163
1.567383
4.906921
-2.793586
-1.670532
0.969849
-0.201111
3.749389
3.752747
4.177973
-1.552429
2.340088
-4.455216
1.839600
-1.389198
-3.813766
0.161743
2.033386
-1.686096
-1.100464
-1.476135
1.517930
3.903809
-3.233074
0.966492
-3.041382
-2.658691
2.947083
-4.624939
-3.166196
1.790771
-2.764893
0.010376
-0.801611
-0.422058
-1.841125
-2.393494
-4.360657
1.569226
1.228677
2.300676
-3.261414
2.041931
0.551390
-4.064917
-0.653381
-1.895752
-3.181457
-4.546204
0.989685
-2.271119
-0.518456
-2.528687
1.716919
-4.537964
-4.247437
2.388916
-1.331462
-0.129395
4.753418
3.805542
3.901672
1.791074
-1.221008
-4.724449
0.064548
-2.555950
0.334473
0.767730
-4.270628
-4.543152
-2.752099
0.726624
3.452419
1.917419
3.874222
-0.645447
3.246155
2.423401
0.928111
-3.753357
-4.661865
-4.715881
2.645874
-2.624817
2.503967
4.884056
2.275930
-2.076416
-1.875885
-0.738764
-3.944389
3.219910
-0.405640
1.154694
-3.527832
-0.622864
2.627254
-4.029236
3.838212
0.205383
-3.034973
-3.213196
-1.696167
1.954600
-2.036092
-0.623780
0.812444
2.441711
-4.095982
-3.029175
4.910888
-3.834229
-3.297661
-1.391296
-1.923523
1.900024
-4.614868
0.092232
4.886473
4.399414
-2.740017
2.066040
-0.018004
-3.250471
-2.924805
2.939758
3.637695
4.848022
1.770325
2.951355
-2.260438
0.856628
-3.366089
-3.803711
4.985083
-3.317765
0.679016
-3.968506
-0.912924
4.743958
1.249390
2.461853
-0.984669
-3.351135
3.268127
-4.354859
4.423828
-2.476807
3.429174
4.538051
-3.808614
-3.543091
4.640503
4.960024
-1.278381
0.283508
1.037292
-4.481201
-2.339783
2.031555
-1.136065
-3.518372
0.317383
0.648804
3.585815
-0.361197
1.942592
3.556213
-1.584778
3.810867
-4.519043
-1.402283
4.692176
4.924622
-2.306824
-3.070454
-0.215759
4.646912
-0.610250
3.533630
1.267090
-3.276069
2.853699
-3.450012
-4.552002
-4.914247
3.527527
2.587397
-2.241821
2.575684
-0.009415
-0.914917
2.004967
4.972550
-1.184692
0.278320
-1.766357
-1.635437
-2.111816
-1.158462
4.594421
4.977986
-4.316101
-0.848083
3.524781
-4.300537
-0.576477
4.122928
-2.438660
4.181519
-0.122681
2.034083
-4.906311
0.545349
-4.355774
4.945068
1.369946
-0.247764
4.714311
-4.742737
-4.927673
3.106627
-3.891882
1.977234
-4.232178
-2.854309
-0.435791
3.252869
2.552490
-1.015283
-4.400330
-3.259277
-0.799866
2.002258
4.573975
4.336263
-3.875732
1.439209
-3.251953
3.052063
4.473569
3.128357
1.645485
-2.117764
2.666828
-4.737549
-0.683380
-0.279539
0.670471
-3.246484
1.659546
2.641567
2.376709
1.451431
-4.337158
4.490357
1.312866
2.003245
-2.043152
-4.106140
0.079956
3.309631
1.914673
-0.760498
-1.224648
-2.175364
-3.940430
-4.980133
2.716436
4.108895
-3.729858
-3.582825
4.956574
0.679016
-0.348511
-1.074833
3.298340
-4.557174
2.874756
-3.233032
-1.824036
4.080505
2.805430
1.831095
0.630493
-2.860347
2.217712
-1.782139
-3.641968
-1.001587
-1.551209
-2.665948
-4.083862
-1.388245
-2.265625
-3.865051
-3.630302
-4.385683
3.111877
4.708409
-4.862366
0.986329
-1.329390
4.734802
0.008240
-3.661804
-2.116394
-4.319763
-2.122803
0.869445
-0.883484
-0.211182
-4.723816
0.065955
-4.383134
2.929382
2.355957
-4.832906
3.493652
2.567749
-4.817505
-2.314015
4.558411
-0.480347
-3.276673
-2.621155
-1.978150
-4.962855
1.811001
-1.152669
-2.235107
-0.210266
-3.404539
4.662170
-1.362610
-3.698425
-2.809143
-0.077209
-0.609131
1.403608
-1.155701
-3.216248
-4.918823
0.301819
-0.074027
3.355251
-3.241882
-1.298523
1.638931
-4.157104
1.251221
4.678748
-1.371155
-1.925659
-1.151814
-2.791138
0.726929
-2.598776
1.803284
1.368103
1.229241
1.305847
1.114502
-0.482483
2.016295
3.039246
-5.015447
-2.751465
0.627441
1.564376
-3.715515
2.326317
0.206925
3.642578
1.826172
-2.365417
-3.371582
2.903747
1.762070
4.766235
4.150960
4.631653
1.312866
-0.178528
4.101868
0.449524
3.014530
-2.027893
-2.285156
1.919861
2.166529
-1.637268
-2.603455
-2.870178
3.319397
-4.097888
-2.257956
-0.667464
0.606995
1.513977
1.003660
1.673914
-0.260620
-2.592468
-2.467956
-2.760620
4.470520
-1.071778
-3.504296
-2.015686
-4.651489
-0.445557
-2.980347
2.436523
3.532124
0.601501
-4.431152
-4.590759
-2.290344
2.193296
-0.963745
-0.719322
-3.793179
-2.928569
-0.299988
0.692352
3.601076
3.779297
1.849952
2.070007
2.401699
0.847778
-4.400925
1.083984
-0.007934
-1.557312
-2.082143
-1.320190
2.197266
-0.863953
-2.909546
-1.822205
1.270752
4.306663
-0.905833
-4.558105
1.951630
-2.276545
3.559273
3.864441
2.714172
3.068146
-2.395325
3.280334
-4.743046
-3.654480
4.084489
-3.133850
0.242920
0.798645
3.864441
-4.905446
1.259196
4.813537
-1.867915
0.788574
-3.658360
0.033875
0.162658
4.382324
-1.749810
1.025085
2.687073
3.380127
2.343750
3.019173
0.702208
-4.855652
4.501805
-0.248413
-4.833983
-2.948042
-3.125000
-3.395691
-2.105103
2.993774
4.570618
2.865906
2.959594
0.568237
0.591125
-2.578735
4.900855
-2.478837
2.331238
0.786133
-0.961141
2.190247
-2.848816
-0.404358
4.417553
-3.921509
-0.063171
-4.826966
4.025879
3.798218
0.444860
2.717983
3.727702
-1.647339
3.243408
2.872622
4.043274
-3.533936
-1.931152
1.623230
-4.055786
2.807922
3.390302
1.114197
-4.555969
-2.792969
1.054687
-3.075125
-2.361607
3.914490
4.681396
3.955520
-4.683228
-3.018799
-0.236108
-2.644958
2.536316
0.793682
-1.373291
-0.028687
-1.601461
-0.047913
-3.486633
2.979424
1.611023
-2.811584
4.354858
1.241149
0.408630
3.977778
3.256226
-0.242004
-0.644486
2.422791
-4.816322
3.388993
-2.879028
2.459412
-2.895508
-4.615784
-3.684387
3.957810
1.477966
-2.653545
0.371094
-2.834473
0.905762
-3.648376
-2.099304
0.936282
-0.248108
1.623535
-0.202332
2.674647
0.552368
-3.726501
-0.599365
-0.913696
-1.980579
-3.322410
1.041826
1.788940
-1.543884
-4.545351
-2.739538
-3.149414
-2.604370
-0.202026
0.161438
2.313232
3.274230
1.734351
-3.262329
2.771607
-0.049744
1.689758
4.293823
-4.971294
-4.112244
2.437439
-4.545593
4.122620
2.807310
4.145813
-1.428245
3.054660
1.629536
-2.065735
3.627227
-3.208006
-1.502686
-1.011682
-0.715027
2.353176
-1.251831
-3.998398
0.462036
-3.584289
1.558533
-1.769643
3.297729
3.070679
3.160095
-2.389832
-3.729858
0.759277
1.387962
-4.310984
3.708801
3.295013
-0.630732
4.277047
1.703796
3.345275
1.350007
-0.632935
1.769104
2.668758
-2.135925
-3.896163
2.572021
-1.634521
4.111328
-4.324951
-4.954580
-1.632955
-1.723938
1.377324
1.174622
-3.244847
3.260498
4.525146
1.825256
1.344978
-0.578918
-2.391663
3.840637
3.635864
1.085884
-4.225466
1.802063
4.825901
-4.880371
3.347779
4.731096
-3.085327
2.999268
-3.072205
2.966614
3.265381
-3.545837
1.639098
-4.189148
-2.822266
-2.752991
2.082862
4.752608
3.039551
0.245056
4.528055
3.272400
-1.180115
2.152710
2.125377
-2.397461
4.062195
3.778076
-0.959473
-0.059815
2.429723
-1.381138
-3.815633
-1.678162
2.864075
-4.219053
3.938599
4.127197
-1.579895
-0.562744
4.282227
2.303467
-3.168841
3.649292
-1.643982
4.659729
1.912842
4.355600
1.368557
1.535950
-0.259094
-3.075425
1.210632
2.167358
-1.208703
1.948242
2.425232
-0.967793
-1.538391
-2.984924
2.021586
-3.377991
3.480530
-2.637947
-1.037903
-0.420227
1.019592
3.212584
3.151855
1.108210
-3.214722
-3.591003
-3.301652
-3.518677
-4.173012
4.765030
2.785339
1.953125
-3.432312
-4.064026
4.499817
4.892869
2.195740
-0.329936
-0.160217
4.834900
-1.516723
0.422974
4.597473
1.149295
2.094421
-1.022339
-0.383911
-2.498083
-1.558228
4.834595
4.009705
-1.551208
3.157666
-1.809958
0.902360
-1.528320
-3.758545
3.721556
-2.775549
-1.235657
2.943420
4.176941
4.295044
2.088623
0.451354
-3.403283
0.260010
1.008301
4.439697
-1.207581
1.768188
-0.219096
4.544067
-0.584717
-4.372864
-4.552917
2.824094
-1.424866
-2.504905
-2.298428
4.280598
2.668762
-1.038300
4.365236
3.469848
0.724769
-0.083008
0.516628
-3.668213
-4.725326
-3.171082
-1.021118
1.205750
-4.707876
-4.935303
1.025391
-1.814880
4.896545
-4.756775
2.600098
0.819419
3.824697
1.128845
-2.799652
-0.778742
4.826363
0.310974
0.045410
-1.172882
3.778687
4.278870
4.081722
3.267822
-3.443587
-0.547180
3.327637
-3.539124
-0.226135
-4.263051
3.036235
1.912536
-1.091548
4.143066
3.514186
3.946533
0.717163
0.087585
-3.714837
-0.296631
3.605652
3.855896
-1.051941
-4.063042
3.277891
4.867249
-1.324611
0.122375
-3.380736
1.272844
-0.368652
-1.407776
1.621399
1.366577
4.923401
3.001099
-3.847657
-1.338501
-2.102966
-3.052368
3.386878
-3.322343
3.584290
3.151855
-3.320150
-4.293823
-4.677124
4.811096
1.912059
-2.831726
-3.047485
0.252380
-0.539856
-1.683045
-4.105311
4.922878
4.719829
2.742310
-2.580261
-0.022886
-1.179810
-1.105957
-4.579163
0.920715
-1.799927
2.969971
-0.003863
-3.619080
-4.678040
-2.241821
-2.803345
0.062997
-1.323399
4.002686
1.127319
-4.467637
4.707947
-4.153137
3.838294
-2.243042
-0.460815
-3.092426
3.674622
0.391541
3.248698
-1.341248
-4.155884
2.959588
4.774170
-2.675476
-1.736145
-3.017274
-0.483093
1.432612
-4.784546
4.926147
-1.324113
-3.887634
0.794945
1.622940
1.894531
-4.318848
-3.086853
1.237488
1.814880
1.594224
-3.764648
-0.127910
3.018188
-3.293762
-4.624023
-2.946167
3.288574
2.787479
-1.339417
-4.007568
-0.040283
2.725306
-2.235718
-4.377747
-0.827026
3.997192
-2.456348
4.502908
0.860856
4.976196
3.372498
0.035032
-2.761511
0.630798
0.292358
2.253113
-2.213440
-0.819702
-0.705567
-3.738671
-1.959229
-3.728332
1.039734
2.194824
-4.175720
-1.793803
2.337036
-2.715454
1.912537
0.998840
-4.317019
-1.761169
-1.562522
-3.882901
-2.812603
-1.149292
2.631134
0.956117
3.171692
1.386695
-0.934448
3.365749
0.812683
-3.983444
-2.749939
-0.826111
3.048096
-2.920766
-1.022644
2.819214
3.151855
1.125183
1.652832
-2.361450
-0.766884
3.996816
1.370850
-1.792267
3.970404
3.343819
3.226318
0.608459
0.075898
3.627319
1.726379
2.422786
-3.802490
-1.107772
-0.887146
-0.790405
4.622803
1.679077
4.408213
-1.815755
-4.981079
2.829961
0.983887
-2.797764
-4.822693
0.357971
-4.491882
-1.027154
3.858643
2.280579
-3.986816
-1.891174
-3.987358
2.001341
1.965332
2.209324
-3.864136
0.439454
4.120745
3.500366
-1.264038
3.967285
-3.100281
2.902527
3.457642
2.209472
1.377563
2.578430
2.935181
4.767493
1.190597
-0.972290
0.036316
0.900736
-0.128479
2.991943
4.358521
1.449718
1.482849
-2.170410
3.351440
-3.604431
3.545837
2.910070
-1.644505
-1.760274
3.977051
3.590393
1.064455
4.091187
0.494690
4.338684
0.123291
-3.619690
-4.907532
-3.445636
4.182434
-4.276123
1.425171
-2.304077
0.712106
-4.647374
-2.087402
3.152771
-3.525254
0.967407
4.384766
-2.451989
-0.167542
-4.832764
-4.949116
-2.610168
0.128174
0.439860
-4.262085
0.080566
4.538872
0.048218
-2.161560
3.597412
-2.294313
0.131836
-2.626531
0.621338
4.259644
3.302657
1.502686
0.351219
0.152298
-3.428650
0.273743
4.007874
2.105103
3.444519
-3.056960
-4.329224
1.528584
3.924866
4.057007
-4.991455
2.402039
1.600952
-1.506955
3.466187
-0.749512
1.833801
3.138514
0.473328
4.484253
0.122070
-1.956482
1.232312
1.425515
4.706376
-1.136780
2.653503
2.729429
2.450281
-4.609680
-1.005249
-0.292358
2.225342
-1.996155
3.772582
2.874793
4.369812
4.837647
-0.495300
-1.150818
1.105652
-2.546977
1.846313
4.433594
-3.845825
-1.950684
-0.315249
2.341309
-1.896079
-4.696805
-2.244671
-0.273438
-3.611542
3.150331
3.323974
4.324622
4.272156
-1.928440
3.552856
-1.289963
-3.040161
0.078430
-4.977417
-2.280202
0.471191
3.758850
2.061157
0.232239
-1.234741
2.185669
-4.612710
-1.190562
4.123840
2.325775
-2.366877
-0.145256
-0.458679
4.084716
-2.516570
-2.413330
-2.774658
1.025692
-1.604004
3.359696
2.275391
-4.222412
4.512939
4.949951
-4.398549
-2.900045
-0.750428
-3.181392
-4.869690
2.951137
-1.220703
-4.239197
-0.592651
-4.255913
-3.243713
3.100586
2.580261
3.638001
1.807320
-1.740114
4.905701
-4.682766
4.800415
4.156495
-2.195478
1.033020
-3.887939
-0.264282
-2.546692
-1.978455
1.692200
-0.058900
-3.746033
2.608032
-2.746582
-1.558801
-4.260758
-2.688904
-1.513672
3.389750
0.669251
-4.541626
-1.578979
1.755504
-2.555847
1.227417
-1.445923
1.867676
-2.922669
-2.092067
-4.717625
0.608195
-4.310303
2.198486
-1.597593
4.392090
2.243042
-2.643738
2.634277
0.099182
-2.645264
2.993268
-0.256348
-4.261780
2.287903
4.385986
1.814706
-3.499302
2.180176
-1.020508
2.819961
-3.680420
2.572937
3.029273
-0.082397
0.330811
3.287579
-3.460083
0.963135
-1.525472
-1.169128
-2.229309
-0.118721
-4.181824
-0.972900
-2.140808
-3.539735
-0.822754
-0.467412
-4.398193
1.925354
-3.447220
-4.190979
1.869469
-2.534164
-1.517029
-0.391846
-4.081421
-3.735352
-2.609558
2.536607
1.484375
-3.357890
4.911194
-4.849548
-4.524841
-2.949829
2.641907
-3.974301
-2.925720
0.303650
-3.438110
-0.271520
0.065308
-2.433777
0.461731
-2.217712
-3.806445
-0.338096
-1.310164
1.678772
2.373047
-3.326784
3.501917
2.007751
-0.443115
2.583313
-2.505798
2.757873
-3.924561
-3.470727
-4.060974
4.859009
3.265991
-2.948608
0.155334
-2.007732
-3.806763
1.413574
-3.594360
4.953918
-2.713931
-4.290466
1.126687
-3.086392
-4.304607
-1.836548
-2.406708
-4.869383
0.172729
1.680579
4.671326
-4.059177
-1.662598
-2.590927
2.023010
-4.544372
0.047913
-4.396901
3.652954
1.593323
-2.210999
-3.763428
3.535156
-2.519531
1.824668
4.118276
4.574280
-3.873566
2.928839
2.414254
-4.097900
-0.255188
0.693879
-0.873718
-1.134338
3.017574
-0.383911
-0.692428
-2.982788
4.561768
1.830750
-1.113892
0.426280
4.819682
-1.777039
2.353581
-0.396118
-4.030980
-3.608093
-0.018616
-0.596314
1.283027
-1.946106
-3.025208
-1.869202
-0.953674
3.666756
0.639952
2.252502
-0.279689
-2.462463
-2.728576
1.987566
0.388794
-0.122681
-4.688110
-1.995850
-4.156189
0.861206
-3.652955
4.832458
-0.123901
2.263489
0.489539
0.783492
-3.670959
0.821838
-2.305746
0.392151
3.678589
0.700989
1.777782
-1.247864
2.307434
-2.073365
-1.951599
4.239197
-1.486598
4.577724
2.222270
-1.163025
4.320679
-4.253233
1.016846
2.024841
-2.846069
-3.519897
1.837769
-1.670227
-1.567279
2.516785
2.590332
3.878784
-4.811707
1.633432
-1.483921
2.270508
3.643494
-1.010910
-2.568970
-4.926758
-1.054895
4.148865
0.003662
-2.750019
0.460205
2.527466
-3.435873
2.937927
-4.848328
-0.856330
-2.724609
1.537170
0.841980
-2.497865
-3.505554
0.005000
0.644836
1.207886
-0.910599
1.192627
-0.698890
1.734024
-0.939331
3.514404
4.924011
-0.849304
-2.200317
2.782883
-4.707336
-0.334209
3.220825
0.895996
2.762451
-3.026733
-3.550415
2.080997
-3.152466
1.038208
-2.421265
1.865931
-1.455688
1.094360
-2.930908
-0.875244
-4.545581
-3.334617
4.361528
-3.501587
1.771545
3.828062
0.231653
-0.494690
2.192993
-0.275574
4.617310
-0.340271
3.822021
3.134193
-4.008789
1.904602
-4.882507
3.749390
4.657593
1.639729
-4.041138
-1.527405
-4.282837
1.886292
-2.112124
-3.296204
3.755471
-4.831693
-1.411541
3.273926
-4.395233
1.934816
-0.345459
1.332984
3.087463
-1.422459
1.757202
3.202835
1.350708
-2.257385
-3.810730
1.731028
-4.066772
4.797668
-3.066101
0.853882
3.551941
0.751648
2.268394
-3.641429
-0.882568
-2.227142
-0.038691
-2.990715
-4.779053
-3.065247
-4.687896
-3.168945
-4.293518
3.728939
-4.515991
-2.416061
-0.115967
1.863708
0.251160
3.549194
-1.044668
-0.191305
2.137756
-2.868281
1.194458
1.942226
-4.322815
-2.803650
-2.507324
-2.026299
-0.376587
-1.208801
3.755493
2.002259
1.152107
-3.410036
1.788025
-3.848720
-3.442993
0.007325
-4.798323
-0.938721
-3.836670
2.789612
1.823730
4.852905
-0.241089
4.891051
-0.547180
2.371216
-0.634155
-0.551416
-3.977555
0.519714
4.761353
2.633524
1.419678
-0.294800
0.356140
-0.583668
1.593628
4.795227
-2.433472
2.392578
2.688293
-0.102626
1.704494
-2.402059
-4.330444
0.261536
-2.344969
3.953857
-1.341858
1.630859
2.797852
0.011597
-1.689453
2.332868
2.242737
-4.729004
-3.150940
-1.520691
4.437082
-0.769810
-3.705139
-2.550049
1.789688
-4.212341
-3.527832
0.113318
-4.761658
-4.110718
-1.671833
-2.566833
-3.247681
-3.841757
-0.750732
0.239258
-1.087959
-3.408203
1.575623
0.207825
-4.367066
4.397583
1.464655
-0.407104
2.884216
-2.005570
-0.816955
-3.312721
4.081131
-2.235413
-2.622375
-3.227844
-1.800842
-2.848206
-0.603042
3.943481
-4.279521
1.580811
3.610535
4.130554
0.649109
-1.858826
-4.328915
4.620361
3.481750
3.786621
-4.850072
0.394897
3.155518
4.889526
-1.868591
2.599500
3.033792
-4.049117
2.326965
-0.546570
-0.596682
0.264002
-3.729858
4.912109
-3.269958
0.498962
-0.843811
-4.602967
-1.252404
1.538391
2.890931
-0.095215
-0.741882
4.187927
2.873250
3.806458
2.224731
1.760254
-0.695190
1.652219
4.368896
-2.165855
4.857944
-0.705669
0.178223
-2.208344
1.774904
0.622558
2.886024
2.288208
2.702602
-0.718079
0.679031
4.517822
-0.787659
0.590515
1.926341
0.664368
3.114929
4.063721
-0.622864
4.774780
2.121277
1.799644
-4.422679
-3.185730
-2.761200
3.038397
0.915841
-3.602295
2.788330
0.386872
-3.659973
0.055237
-4.170842
-2.579346
1.033036
4.848938
-3.243408
4.025574
-1.585388
-3.852285
-3.207357
-1.290894
0.224675
2.365417
-4.536656
3.861084
1.856689
4.512939
2.996894
4.043579
-1.155701
3.308411
0.245056
2.599251
-1.917726
1.728210
2.323155
-2.665405
2.984010
-4.220015
-2.501221
-0.756226
-3.366394
1.234436
-1.809082
-3.164978
1.986999
-0.593872
-4.860535
-0.880737
3.187293
-0.707902
1.809082
-1.070862
-2.978048
-0.425415
0.290222
1.425781
-1.188527
-2.640381
-4.643555
-1.828919
1.121826
-2.350464
-1.768886
2.053615
0.483073
0.259705
-3.377686
3.574526
0.003967
-2.357483
2.591858
3.207092
2.800903
1.217957
4.808149
1.150513
4.766235
-0.950317
-3.200989
-1.218741
1.083217
2.682495
-2.373352
2.699722
-4.637451
-4.047546
-3.308923
-3.451538
-4.467468
3.564373
-0.438232
0.843811
-4.515585
2.371216
4.861145
-3.786018
-3.204041
2.802429
1.500549
0.356139
-1.136780
3.846552
-4.942627
3.821411
2.708480
-1.085815
1.521874
-4.454330
-3.688965
-4.616699
-0.576782
2.436218
-3.706970
-3.852248
-3.026428
4.364277
4.696960
-4.631042
-4.204406
-0.943604
-4.959412
-3.380124
-2.207031
-1.979065
-3.343506
-3.891515
-3.270569
-2.225342
1.395874
-1.188354
1.076367
-2.306174
1.761430
0.333557
-0.307007
-0.805117
4.501673
2.294617
-3.099976
-3.240051
-1.099854
4.073486
-1.487427
-3.881799
3.322449
-1.294555
-4.609985
-0.277710
-0.088196
-4.275798
-3.930664
-4.661865
0.668030
-1.024170
-4.956973
-2.775879
4.469582
1.502841
-1.754253
-3.955078
-1.110016
-3.194273
2.296142
-2.663293
-3.789368
-2.952610
-0.891418
4.028336
-3.253174
-1.607666
2.348022
3.062815
0.123291
4.849243
-2.619934
2.312012
-3.011475
-1.594238
1.225913
-3.705211
1.176453
-0.892303
4.075994
-1.654350
-3.940430
2.209106
-0.883270
-2.461853
4.203491
-4.565739
1.621094
-3.109115
4.385071
4.364929
4.917908
2.480164
-4.962209
-2.074849
3.726501
-0.537349
-1.827393
3.303615
2.076721
4.424743
2.883606
1.502448
-2.848511
0.213623
2.420044
2.359619
-4.412773
3.081053
3.971252
1.496739
4.239197
-2.406920
-4.813276
-3.035889
0.631714
-0.390015
-3.581543
-1.296387
-3.104858
2.644347
3.033142
-1.867676
1.512451
-2.087671
-3.657426
1.166077
1.781921
3.355265
-2.083740
2.188721
3.110657
2.169017
-4.603882
1.886597
-3.235779
-4.515381
-4.941101
-3.257838
2.608425
0.637492
-0.910339
2.998657
-1.394956
-0.842896
2.278137
2.913818
3.018188
-4.351196
-3.014526
-3.900347
1.909485
2.345581
0.476685
3.813782
-2.533133
-0.016026
3.674316
-1.119690
-0.677048
0.126343
-4.596252
-0.812890
-4.714355
-0.679321
1.171184
-2.081604
2.969360
0.339457
0.659790
-3.210754
-1.023872
1.076050
2.637939
-2.160645
-2.812501
-4.323120
1.939204
-1.183777
2.519226
-0.570328
-2.911072
-3.363075
2.321488
1.500549
2.626648
-3.822937
0.965576
-3.394775
-4.299941
-2.716980
0.234639
0.601807
0.373840
-2.177734
1.251221
0.433960
-0.897824
-4.422913
0.329285
3.692322
-4.710302
-3.198853
4.269409
-1.883240
-3.965454
4.248364
-2.333640
-3.646285
-0.893555
2.486572
-1.810366
-3.744482
3.225403
3.308105
1.598511
2.200928
-4.293823
-0.947266
3.052405
-2.745972
-3.475036
-3.349609
-3.893127
2.296143
2.846394
0.201416
-3.531494
1.623840
3.288879
4.903867
1.220093
0.813881
-4.728543
0.141804
0.931702
-3.036896
-3.989867
4.533386
-4.292932
-3.047791
-1.032749
0.802002
1.927811
3.101501
-2.796326
3.191528
0.989146
3.101807
-3.749390
-4.666138
-2.528076
2.966614
-4.463196
1.318687
-3.497386
-0.744629
3.280060
-2.218561
-0.788566
0.568848
3.208557
0.002961
-4.170837
3.673401
-2.583317
-0.772400
4.214494
4.567261
4.608459
-4.936218
4.671326
-0.199026
-3.047139
-0.297547
-1.678706
-1.645813
-3.854893
-2.577209
-0.307923
-0.579529
1.108161
-3.023682
0.929871
-3.656616
-2.564392
-0.369804
-1.288454
2.086792
2.270665
1.128235
0.566102
-3.476606
3.656006
-0.959473
2.157593
0.770874
-1.292114
-4.446716
2.084350
-0.823059
-0.814514
-3.728333
-4.237024
3.751937
-0.993347
4.190369
4.925089
2.059021
2.485046
1.199036
4.509105
2.936707
-2.560425
4.997863
2.847900
1.546936
2.232885
4.206325
-2.169209
-2.038574
0.795593
-0.319517
4.432068
0.249328
4.704590
4.245911
-3.981934
-2.833557
-3.634234
-0.334168
-4.533997
0.780640
2.409058
2.655771
-2.001194
4.356079
1.233215
-1.667649
2.106628
-4.199524
3.889258
3.781128
0.194397
1.975323
2.718201
-0.520630
-4.550070
4.302368
-4.746704
1.469109
-3.236084
0.611572
0.198669
2.095031
-2.479553
4.135859
1.763306
1.910400
1.038558
4.483948
-1.913490
1.177384
-2.000122
0.884705
2.261047
2.761536
-1.794434
3.532395
0.091553
-4.719890
2.889404
2.725220
3.655701
-1.508179
-0.720520
1.493228
4.729309
-0.436707
3.909912
1.897364
-2.865295
1.984253
-3.728027
0.332947
2.079785
-4.056357
-0.644576
2.151489
-4.453430
2.387938
-1.373877
0.909424
1.793823
-1.239624
-3.836975
2.557678
2.034301
-0.755578
1.026001
-0.111694
2.351685
-2.857971
3.235474
-2.488689
-0.082397
2.715759
2.108765
2.905579
1.571348
3.455811
-3.991416
3.125461
3.828938
0.431519
4.848846
3.983156
-1.634827
-1.965051
2.272949
-0.232273
2.082825
0.126053
-1.890869
1.191101
-4.251709
0.118785
-0.754700
0.431213
0.335083
-1.290283
-1.086426
-1.436768
-4.905068
-4.752269
1.886902
-3.474396
-3.593073
-2.098686
-3.160706
4.254089
1.654877
-1.575012
2.474670
-1.481022
-3.409424
-4.450973
-1.011658
4.983215
1.293335
4.123230
1.424204
3.949015
2.712402
3.510808
-3.522339
-3.359898
-1.483459
2.156067
-0.651855
0.699531
1.081543
1.975098
2.133789
1.258850
-4.343193
-0.095217
0.399170
-2.477565
2.214966
-0.441283
-0.546614
0.147705
3.702698
0.800781
-3.182068
0.031433
2.002258
0.039062
2.728882
3.315430
3.415527
-0.945398
4.733382
3.421631
4.088135
-4.853353
-1.369324
-4.869080
-1.022034
0.629100
1.386719
1.118164
3.504944
3.823242
-1.234131
-3.760768
1.903469
0.478190
3.139954
-0.112915
1.555788
-2.739868
3.692321
1.724548
-3.248901
-4.023132
-4.641724
1.103925
1.948242
0.813599
-1.900024
-4.474487
-2.400382
-3.261570
3.073730
-1.676941
-1.823899
1.698914
-2.743835
1.018775
-3.674927
0.497131
3.069988
1.006165
2.148438
3.089701
4.700317
-1.669006
1.750786
-4.611206
-2.710266
4.621582
4.111937
4.641418
1.172907
-3.292847
0.147705
-1.588700
-2.770386
-3.096657
3.628861
-1.251221
4.898987
4.721375
-2.989502
0.143738
-0.062881
0.396423
2.279622
3.740234
2.854614
-4.458618
0.061646
-4.252930
4.990543
1.245422
-3.131714
2.809448
3.641444
-1.076660
3.508606
2.165222
2.840576
4.234021
4.730264
-0.599715
1.342468
-0.624084
3.553404
1.590601
4.377441
4.074097
-0.444946
-1.192017
0.736084
0.573425
-4.827844
1.306763
1.752014
2.944336
-1.093445
-3.968811
3.707295
-3.978882
0.004578
-0.571899
0.447693
4.279172
2.832642
-0.125755
-2.951199
-4.029339
-4.148865
-2.681061
2.597963
2.808838
3.745093
3.296509
1.401333
0.572510
-3.028244
-1.826172
1.559754
0.847778
-2.482534
0.017090
1.033020
-0.685730
-4.190063
1.322632
-2.268677
0.831016
-3.962474
-2.636414
-3.965118
-3.370905
-3.716423
3.652344
-4.382386
4.114289
0.522766
-4.624939
4.370418
3.979187
-2.239669
-3.388367
2.179871
-4.006958
-3.314514
2.155406
-3.707845
-2.297974
0.596074
-0.269165
-3.652562
-2.988586
0.758667
-4.535217
-0.974969
3.739929
3.109741
0.350037
-0.101928
0.426094
-3.119814
0.591125
3.694615
-1.853027
-0.659789
-0.392500
-0.505371
-3.681030
-4.267883
4.432068
2.725830
4.033508
-1.567384
4.598999
0.016174
0.996094
4.423255
-4.175309
-1.030273
4.731445
-4.913168
-3.009033
-0.874939
3.915100
-2.377491
2.301636
-4.240417
3.207702
1.473999
-2.389527
3.089513
-0.122288
-0.050069
2.630310
-1.574402
-2.272337
-0.070496
-2.510681
3.851318
-1.974792
-0.433655
-3.772888
-3.027850
3.770142
-2.475891
-4.921875
-2.650757
-3.406546
3.143459
-1.648254
0.050354
2.192520
1.416626
-0.278015
3.007300
4.472046
1.906738
1.723553
0.096130
3.638306
-4.392904
1.387329
4.953613
-1.363838
-0.931702
4.460449
-0.166016
-0.757142
-0.882568
-3.379705
3.295288
-2.073364
-1.553605
4.004822
-0.057716
-2.608932
4.905090
0.864258
-1.765137
3.108826
4.340515
-2.348342
-1.994934
-2.798503
0.714417
-3.245544
4.241638
3.157043
2.685852
-0.940854
-1.292419
-2.485352
0.663147
-0.973119
-4.047852
-2.206116
3.414001
1.122742
-4.719226
2.979470
-1.716048
-4.597473
-4.758911
-3.720766
4.072901
-4.927368
2.196960
-4.341125
0.783386
3.834228
-0.459595
2.474097
4.825439
-4.172668
-0.884399
3.331909
4.547729
-4.050273
1.410217
-3.992615
4.346924
3.594055
-3.921816
3.881836
1.903359
-3.118436
-0.637920
0.058289
-2.601105
1.721193
-0.046387
-4.039025
-0.878906
1.241421
-0.084229
4.932877
3.566284
0.799866
2.133179
-4.132924
-4.321289
4.928894
0.946045
-1.927185
-3.280945
-0.985107
-2.525612
0.877919
4.764709
4.358551
-3.805780
0.623482
-3.410034
-1.258912
4.506135
-1.651611
-4.962769
0.542293
1.261597
-0.305465
0.935059
-0.577393
-3.146362
1.655884
3.635203
0.535014
0.358886
-2.823726
-0.789490
-3.381566
-4.045410
2.009277
0.423889
4.149848
4.944458
4.999390
-2.543945
-2.587890
4.929878
-3.388063
3.525696
-2.081447
3.134460
-3.832091
4.440874
1.980591
4.100342
3.084106
-3.945313
4.520874
0.557556
2.432250
-1.021423
1.455688
-3.206482
0.126075
4.105636
-1.057129
2.422791
-1.984091
-1.303101
2.023926
-2.322693
4.432201
-3.836060
0.562439
-3.159180
-0.186157
-0.217896
-4.720851
1.358425
3.864421
3.304138
1.698914
-0.605467
3.365784
-1.817017
4.821167
2.783813
-3.177795
1.256409
2.317304
-1.041260
-4.288940
1.977539
-0.888062
-1.597769
-2.004856
3.261108
1.036377
4.772781
4.019775
-4.993591
0.492957
-0.869751
0.184326
4.338604
2.294006
4.752808
0.629069
1.757202
0.938110
4.188530
2.520142
-3.114624
-0.114746
-4.895021
4.504395
3.476679
2.857666
-3.708801
4.860580
-2.743530
-3.343239
0.989701
-1.565857
-4.353638
-2.254639
-1.893005
-1.553040
3.948960
0.491638
-1.089214
3.162537
-3.567200
-0.115661
-0.046082
2.843018
-3.229367
-3.465271
-0.389404
-2.742004
-3.247594
-3.224792
-1.257935
-0.926514
-2.632141
-4.331042
3.063089
3.434404
1.312256
-4.259949
-1.830202
-0.973791
0.980835
-0.757446
3.984985
1.092529
1.013489
-3.227235
0.193519
1.232910
-0.546264
0.045776
-0.955200
-4.892273
-3.449687
1.641235
-2.397461
2.547607
-4.510193
-0.463564
-4.843140
0.869118
3.395541
-0.759685
-1.795959
-3.499848
-1.838072
1.318054
-0.948205
-4.432068
-2.067295
-2.817688
-0.189804
-2.182922
-0.331421
0.864258
-1.939321
-4.260559
4.419250
-0.327148
-3.351440
2.662659
3.342896
1.495994
2.353749
1.048584
4.371979
1.556158
-2.658378
-4.001160
2.903381
-3.384796
-2.053223
4.330444
-4.197087
-1.164246
3.568742
4.526367
2.991028
-1.836548
1.549377
-2.117666
4.823954
4.960022
0.292119
-3.856506
0.870448
1.368408
-3.717957
-4.009399
-2.483758
3.987427
-2.579956
-4.389648
-0.504150
-4.354484
-1.254579
3.741760
4.048924
-0.468750
2.250367
-3.524519
1.735229
2.146912
-2.651978
2.040405
3.262024
0.142517
3.544005
-0.826416
-4.109497
-3.402100
1.877478
-1.122026
-1.016541
0.911865
-3.336935
-4.425354
2.451477
-0.336609
4.318370
-2.976074
-2.730103
1.320190
0.172119
-0.488587
2.104406
2.576687
0.933818
-2.493896
-4.887390
-0.658872
3.219299
3.762817
4.989014
-0.427246
-4.458923
-0.042114
0.297651
1.792908
4.797974
3.203430
1.209106
-3.919241
4.169460
-1.245728
2.570496
0.939468
3.782043
4.217834
2.507117
3.720703
0.790710
-4.436726
-4.041748
-2.662354
0.370280
0.364685
-4.327393
1.172478
4.439697
-1.777344
2.462158
-1.021424
-1.047363
4.272578
-3.997192
1.394653
-2.479508
-4.395447
-3.089027
-3.514694
1.712646
-4.104614
3.606567
-4.881287
-4.630432
-0.921340
3.099365
-4.968608
4.165039
-3.256531
-0.234985
0.573425
-2.901306
-0.036313
1.171265
1.768799
1.430969
0.730982
-4.982300
-0.540466
-2.358704
3.335571
-3.748462
0.351907
-4.033858
0.997620
-1.578674
-0.822512
1.061121
-1.934814
-1.669617
0.978394
-3.492737
3.092041
-1.943360
1.328162
-4.761963
3.106690
3.394775
-2.868347
-1.734009
4.353352
2.788086
-3.681641
-2.546997
0.038757
-4.188235
-1.594543
4.376809
-0.321805
-4.728191
4.578857
1.649383
1.851503
1.961975
-0.395532
-1.411438
3.432583
-3.797913
3.579727
-3.142090
-2.013244
-4.878845
-3.938527
-0.786743
-2.801819
-0.155029
1.275940
-3.655090
-4.373169
1.591819
-4.594188
4.320068
4.937164
0.737677
-3.885795
-1.121826
-2.771363
-1.904083
-4.898682
-1.820374
3.011165
1.868896
2.728593
0.575562
4.338684
0.386963
-3.172913
-1.037038
-2.434652
3.615417
4.198369
-1.731262
-2.422093
3.154602
-3.275757
-2.324524
-2.818841
4.569397
0.739441
4.073181
2.988892
1.081917
1.997374
-1.625977
2.772984
3.135376
4.181519
1.224016
4.540405
1.549988
3.772888
-0.409851
2.957153
0.570984
-0.926820
1.075134
2.928467
-2.367859
-3.798181
-2.994279
-3.854370
-4.756165
-0.151510
1.559143
0.612793
3.615112
1.809520
-2.449646
-1.429749
-1.859131
4.463196
-3.380738
3.105687
0.784694
3.107280
4.288330
-1.230469
-0.375059
3.804626
-2.901917
-3.488770
-4.984131
0.399475
3.171692
-1.769305
-2.557678
-2.015686
2.794800
1.315308
-4.879935
-4.025730
0.582275
-1.665649
-4.016587
-1.593018
-4.215088
2.344153
2.999268
4.362488
2.289654
3.458557
-3.217468
-3.756918
4.991150
-4.548645
4.671624
-1.007690
3.734741
0.452576
0.317687
-2.670593
1.985285
-0.738220
2.645264
-4.975236
1.299133
4.272118
-1.136459
2.799988
-1.850891
4.754944
-0.429993
-1.551209
-4.823623
-0.102234
1.066548
-3.343201
2.813416
-0.091552
3.115845
1.455994
3.227542
0.500183
-2.970276
-0.924377
3.009730
1.064758
2.107239
4.016724
-3.801270
1.853345
-4.508628
-3.835189
4.200134
0.470581
3.904356
1.721826
4.161072
2.999573
1.523743
-4.055786
2.365112
0.066833
3.061255
-0.001831
4.209290
3.162537
-4.068603
0.570374
-2.706889
1.526489
1.086731
4.225464
-0.593872
4.912717
-4.269409
4.812905
-2.747647
2.547810
-2.180176
-3.471161
-1.022642
3.579407
-4.091210
0.781860
4.809536
-0.621643
3.601090
-1.264648
-0.242309
2.917175
2.395091
-1.095886
3.482361
-4.368286
2.873230
1.052856
-1.114502
-2.983986
-3.512339
-4.850769
-3.188446
-2.731867
-0.654289
-2.131958
-2.256531
-1.524139
0.046082
4.507446
-2.716374
4.055481
1.846330
-0.874939
-2.819824
2.801514
2.529602
0.716197
-2.376363
-3.211975
1.733159
-1.778870
3.901149
-0.913696
-1.101685
2.228394
2.353279
1.393738
1.747131
-3.891907
-1.779175
-3.148735
-1.127016
4.458923
1.593785
-1.187134
-4.360351
1.658587
2.975769
-0.468140
-2.550659
-1.760254
-4.659424
1.320801
-0.562135
-1.802063
3.730164
3.252869
-3.344995
4.526778
-0.535583
-4.934082
3.766337
-3.505859
0.219116
3.130493
-1.442128
-4.470520
2.641602
-1.141053
-2.360535
3.720703
-0.955592
4.839870
-0.467244
1.626587
4.745789
-0.787657
3.027344
-1.122132
-2.381592
2.985535
-4.274292
-4.846802
-3.602496
1.628418
1.305237
4.380188
-0.638123
-4.768240
-0.100254
-0.028076
-0.184631
-1.858994
0.477600
3.908386
0.068152
3.235779
-0.649414
-2.535786
0.824890
1.096802
3.809611
-3.489685
-4.003906
-0.544746
-4.782410
-1.157532
2.240601
3.236693
-0.119324
-3.065374
2.020569
0.304565
2.976119
3.453064
-1.595192
3.829666
3.373413
2.322998
2.622681
-4.414368
4.187622
3.677659
1.014709
1.528889
-2.199402
4.880676
2.937928
4.150696
-0.468750
-4.178464
-3.807068
2.738037
-1.033325
1.159449
1.530762
-4.186096
3.036194
-2.641602
2.806714
-2.928428
-0.116317
-2.682800
4.339294
-0.481935
-2.419714
0.407410
2.039795
-1.665344
-3.095093
0.739441
-0.127564
-2.229882
1.759949
1.458130
-1.788635
2.200928
-2.892456
-2.142009
-4.347229
-2.814026
-2.333679
-2.651672
0.847166
-0.023193
-3.074058
-1.643826
-4.083660
-4.353638
0.330413
-2.509764
-2.000733
-1.361718
2.032776
-4.483677
0.544128
-4.750656
-1.661072
2.347107
0.817261
-2.914358
-1.525879
2.405396
-4.716492
1.691589
-4.832764
-1.839905
-0.635048
-1.149669
-4.949036
-4.522980
3.136053
0.215462
2.635498
-2.081665
-0.297027
0.569458
-3.047791
3.027034
-2.775879
-2.758773
4.941406
-1.385498
2.186279
-2.695618
0.638987
1.016276
4.416504
-1.439754
4.214783
4.664394
1.057434
3.724670
-0.031433
4.159309
0.840759
3.968201
-2.727051
-2.308044
-4.808891
1.647642
3.596497
4.261326
-1.829224
-2.324828
3.644060
2.472839
0.486145
3.834839
3.589478
4.020386
1.352539
-4.648133
4.755554
-0.828247
2.547302
4.029273
-4.712724
-2.437439
-2.449646
-2.768697
4.579773
1.816406
1.894226
3.246593
-1.412048
-3.097839
-3.658448
-2.316284
1.253662
3.025121
-0.566624
2.321757
0.021973
4.865723
1.162722
0.563660
0.155639
4.981384
3.737488
0.653992
-3.306274
4.171552
2.003174
1.440430
-1.849976
-3.335877
-0.920889
1.335903
1.010132
2.812500
-0.645615
-4.396667
-0.905457
-2.759607
-4.727173
2.349243
-3.173298
-4.402771
-0.603943
2.474161
0.597839
-3.807068
-1.612251
4.155884
-3.082581
2.062073
0.484618
-3.558044
2.009699
-1.500244
2.808533
3.473861
1.433411
0.541954
0.692459
3.434448
3.769531
-2.343445
4.575806
3.306579
-2.039809
-1.471863
-2.927898
4.425049
-2.268066
3.755799
-4.047852
-0.742493
2.562259
-0.729370
-4.573975
4.675293
-0.892858
-1.708069
1.242371
2.042542
2.185669
4.628003
2.175943
-0.566756
-0.623169
-4.861145
3.863463
-3.730749
-1.710815
4.170837
-3.252869
-4.151917
0.571899
-2.223206
4.689979
-4.409485
1.725769
0.532532
-4.346619
1.132813
0.746175
2.767029
1.502686
3.759155
-1.120911
1.010129
-2.333374
-3.019737
0.838779
-0.516765
0.050659
2.356476
-0.957335
-4.582825
0.261817
0.224304
2.679409
-3.926392
-4.089340
4.687195
3.054505
0.184021
-2.724843
-0.242004
-2.173157
1.714478
-2.223816
-4.603577
3.180237
-1.291176
-1.980052
-0.306091
-1.170013
-4.972467
2.307747
-2.795715
4.239135
-2.032562
-2.834473
-1.220093
0.338741
-1.019592
-0.327132
3.222046
-3.984680
1.346130
-3.537292
-3.934987
2.582743
1.540527
0.646733
-4.213867
-3.164891
-2.236328
-2.665406
2.803040
-4.883050
3.222046
-4.850769
1.495972
-1.493225
-3.053520
4.821165
0.637817
2.814183
0.400696
1.563111
2.519182
2.420959
1.355286
2.781982
-4.004211
2.324219
-4.925232
-2.314759
4.059143
-3.055115
3.394165
0.342444
0.729476
0.264282
0.839233
2.736368
-1.716919
-3.948975
0.153809
-0.413380
-0.814514
2.337646
-4.885559
0.839844
4.224243
-0.797816
3.413173
4.513835
1.057434
3.909912
-2.378233
-4.722900
4.137573
2.482910
-3.550415
1.188965
1.110535
1.749677
-4.890137
4.622192
-3.972473
0.983276
-3.393729
-0.723423
4.690552
-2.936401
2.332595
-0.344238
2.434998
2.351783
4.662170
4.644470
-0.348591
-0.303955
-0.730591
1.681925
-4.522400
2.075500
0.078118
3.360291
4.606934
3.695984
4.644469
2.270508
-1.879461
-1.182251
2.589111
-3.126481
3.169251
4.045677
-4.504989
3.733215
1.805725
2.596741
0.075073
-1.548462
4.789109
4.673462
3.469502
1.538086
0.060120
3.020325
2.658081
0.899658
1.580203
-2.287903
-3.373108
-2.541504
-1.284093
-0.751953
3.053894
-4.518738
1.503906
4.006360
-1.662253
4.176591
2.108459
1.124878
3.174681
2.101770
-2.219543
4.871216
1.699829
1.104431
-4.365540
1.562499
-2.997094
0.869446
4.554444
-4.900818
0.654907
1.454468
4.508382
0.173645
-0.426331
4.555664
-1.191406
-2.781375
-2.811279
0.559365
-1.095120
-1.842754
2.567444
2.730011
-1.471861
-2.998657
4.806495
-4.558716
-4.755283
4.416504
-4.300217
-2.937927
-2.886047
0.220032
-1.775441
-4.364624
3.316650
2.970886
4.542236
-2.656860
4.047852
0.655235
-0.484080
-4.743042
0.818512
1.528387
4.903878
-0.371094
1.800171
-0.639129
0.020447
-3.676758
2.748104
1.540833
2.903153
4.959717
-0.978394
-4.845581
-0.898132
3.324839
-1.834676
-0.982056
1.598271
-0.396423
-0.097569
-3.605652
-1.229859
-0.962830
2.218696
-2.774963
4.057007
-3.502197
-0.107116
3.912422
4.656676
1.610413
-4.583583
0.160522
2.205506
-2.038923
-2.414551
-4.404602
3.249207
2.868652
-1.628418
-2.533264
2.310790
-0.431519
2.889709
1.250916
-4.632531
-2.138871
3.269043
0.565491
-3.479147
-4.515381
1.442871
0.007324
-4.109974
-4.166260
1.268005
0.040283
0.877380
4.771423
-4.724208
-2.029332
-0.260640
1.991272
-3.640137
4.268191
-0.901794
-0.847473
-0.275269
-2.307129
4.065247
1.125488
-4.612323
-0.696716
3.248291
1.944580
-3.400879
-1.606924
-3.190770
2.032166
4.364929
0.011123
0.180359
-1.747437
3.511756
-2.014771
1.340027
3.344341
0.955811
2.444153
4.384867
-3.585510
-0.055847
-4.019172
-2.519226
0.689392
3.322449
-2.482301
-2.735596
0.680049
-1.637268
-2.263794
-1.277116
4.836426
-4.864540
-4.264816
2.139587
-4.754639
3.179932
-0.020142
-4.306946
1.439194
-3.132019
3.641011
-3.804016
-0.732727
4.769287
-2.432861
-4.095764
1.769718
3.335266
0.777283
-1.837463
3.490076
0.210266
1.486816
-0.292664
4.807129
-2.515857
-1.258506
2.448381
-2.149963
0.201111
-1.880556
2.506738
0.556641
0.431519
0.757446
-0.505066
0.439453
2.224426
-0.229760
3.352051
4.620972
-2.247314
2.947998
2.375183
-2.330608
-0.040894
-3.695679
-0.570984
4.019165
2.022092
-3.307800
-0.351890
-4.182584
-1.050518
-1.602783
-2.772614
4.258424
1.601257
2.257361
4.457397
3.722195
-1.495972
1.581741
-0.127869
-2.345886
-4.321594
3.646006
-0.113525
-3.690796
-0.112915
1.723633
0.178223
2.898865
-4.445168
4.897084
0.556335
0.538666
0.674810
2.060250
0.822754
-4.121460
2.194428
-2.845459
0.479736
1.203914
-4.409790
0.928056
0.098572
1.770935
-0.007324
-2.420959
-2.836660
-0.901449
3.097839
1.049870
4.185791
-1.692113
-3.163757
-0.873413
1.950073
-0.551385
-1.114197
0.260315
-4.372864
0.405579
0.316536
1.680601
-3.359375
2.592320
-4.880676
3.011476
-1.929670
-4.048767
0.592957
4.442139
-3.675537
-4.871521
-3.861084
3.510741
-2.825623
2.883911
-1.460266
-0.436975
-1.539201
2.792969
0.372314
-0.081014
-2.026367
-2.487183
1.426392
-2.971363
-1.616821
4.263916
-1.500244
0.016785
-1.782837
4.087743
3.857814
0.798015
0.591125
-3.571472
-2.131956
-2.353516
-1.835327
-4.381104
-4.479065
-3.854980
-3.088989
0.807905
3.153992
1.035156
-3.451538
-4.050903
4.689767
-1.621556
0.443726
1.281738
3.279861
1.896057
2.800598
2.992347
-1.466370
2.633057
-4.071125
2.975159
4.571533
-4.067587
-4.471436
3.702698
-0.700080
-4.945374
-3.566284
2.512817
0.214232
4.766846
-2.775457
-0.900879
-3.155823
-4.831498
-3.968811
-0.566139
-4.240707
-1.393433
-4.667053
2.131653
-2.561951
-0.496216
-0.925308
-1.105042
1.359517
0.844727
-0.705566
-4.396057
-1.195068
-3.500366
-4.537961
-4.386292
-0.494080
3.395081
4.204493
1.821594
1.408081
2.614746
2.257080
-0.934741
-0.133323
3.485978
0.449524
3.415222
-4.009157
-0.302405
1.538696
-0.073242
-0.360718
1.666870
-0.298157
-4.591675
-2.611047
3.734741
4.503174
-2.226257
0.606079
1.066284
-2.886943
-1.461487
4.449463
4.499512
1.815491
0.023801
2.270203
-2.099021
-0.105435
3.830769
-3.438721
-3.126007
0.211794
2.133484
1.270423
3.230591
2.041592
-1.595764
-4.017929
3.337097
-4.649963
-0.956726
-2.990346
-4.029846
4.891968
2.568665
-3.402405
-2.823181
0.912170
-2.130105
3.735891
-2.856445
-4.896210
-1.912775
-0.760185
-2.182922
3.948913
1.862397
-1.606140
-4.606323
-2.514347
-2.082214
2.696244
-3.271484
-3.488464
-4.422302
-4.683533
3.741404
-4.804647
-3.285218
1.279057
4.855347
3.443996
1.345825
-3.215027
-2.416382
-4.796990
3.214722
-1.169739
1.248474
-3.453979
-3.109062
-0.056154
3.971252
1.001439
3.399963
-1.490172
2.962603
4.889526
4.598083
-0.030212
2.097168
0.787659
-4.901123
-0.784608
-3.880615
1.431580
1.069641
-0.512048
-4.967851
2.367554
3.807983
-1.940450
-1.572266
-4.136658
-0.789490
4.234752
2.886353
3.995972
-0.238953
-0.681152
2.680359
3.712377
0.573208
4.981059
-3.242798
1.672058
-3.750914
-0.843201
1.703796
1.693115
-0.486755
-4.347839
4.547119
2.596235
-0.807800
-2.770996
4.478149
-0.689087
-1.901419
-2.169041
-2.434082
4.926758
-2.040268
4.063721
3.520508
-3.369043
2.825012
1.329346
-1.446919
3.696289
-2.565308
4.848124
3.516235
-1.220093
2.204278
1.155090
1.021118
3.098450
1.375731
-0.359802
1.185420
-4.499207
-4.298096
0.661056
-0.408325
4.934349
-3.168319
-0.686951
-3.495178
-1.449890
3.950195
0.950928
1.924424
3.345642
0.280720
-1.561584
4.910889
4.152832
0.189514
-3.432617
1.640323
-4.210205
4.275208
3.902588
1.111842
2.181702
2.965088
-2.618408
2.595825
0.268262
-3.814048
-0.018050
3.882141
1.510010
0.070738
-3.254675
4.391174
-1.198120
-2.538452
-0.369873
2.211609
1.612853
3.769874
-3.979187
-0.873413
-2.842102
4.588013
2.018127
2.657491
0.419006
-2.882385
-4.989929
-0.587158
0.826414
1.134644
-3.676780
-1.920316
-1.585796
1.900940
-0.941559
-2.373656
-2.752991
1.071754
1.766663
-2.478672
-1.018982
-2.629990
2.324829
-3.581238
4.285278
3.306346
3.905334
-3.077087
-4.975281
0.403442
-3.227234
0.474548
4.957908
-2.329478
-2.830811
2.258331
1.768866
-2.765495
-1.719055
-0.488343
-1.582122
1.677856
3.649902
2.520137
-3.972778
-4.135726
-1.665649
2.569885
-2.838135
-0.878601
-1.857046
-4.927022
1.236572
0.038213
2.232056
3.460170
0.527954
-0.458374
-0.573730
1.276313
-0.625916
4.658813
3.502197
-2.418823
4.346077
-0.955202
-2.180786
4.348606
-1.348267
1.978150
4.579729
-0.104370
-2.762146
2.381287
-1.047974
-2.295227
-2.351685
-0.576783
3.651428
4.196777
2.203064
-3.734704
3.783370
-4.980469
-4.337769
-1.517172
-2.042847
3.614197
-4.264832
3.945751
-4.957275
1.221008
-0.687867
-4.941101
3.067016
2.373876
2.201015
1.034831
-0.540771
4.944153
-4.611509
0.599060
-1.386109
-1.197510
-4.975891
2.534790
-3.138733
2.143354
-0.043640
-4.895020
0.193787
-0.410767
3.626230
1.246792
-4.940796
1.004639
3.706802
0.921631
-2.469788
-4.788720
-2.824707
-2.750549
1.150127
-1.980286
3.551636
-2.070822
-1.112671
-2.909851
4.203179
-1.229858
-0.857544
-4.571533
0.519408
0.160217
1.717036
4.804382
-1.424561
4.243209
3.570862
-0.179176
3.697220
3.150635
-0.336914
-3.857422
1.735535
-4.380798
-0.289932
2.026367
0.905110
3.230591
-4.456482
-2.786865
1.178284
2.960815
-0.223996
-1.752930
4.869385
-2.454834
0.946742
4.282227
-4.824524
0.238953
-4.515381
2.439893
-3.501243
-4.462935
1.804199
-3.218994
3.753599
2.389551
-3.162537
-0.049744
3.676148
1.639404
0.323486
1.564025
-4.056054
3.751831
-2.836914
2.393799
-3.251648
-0.777588
3.120137
-1.583252
3.137817
-2.598877
4.405518
3.789976
0.102844
-4.211143
-4.266202
-3.184002
-0.943909
-3.838898
-1.336363
-2.055969
0.017982
-0.582275
3.291286
3.923950
-4.486069
4.779358
-4.020386
-2.918396
-1.270986
-3.537903
-2.998657
3.873901
4.614868
2.824402
-1.621704
1.727012
4.948964
0.491943
-1.928070
-1.781549
-2.490837
-0.296631
0.150695
1.848359
0.153503
2.491455
-3.523869
-2.140198
-1.159347
0.257263
0.420837
-0.781250
1.713867
2.304637
-2.911641
-4.262085
-2.249690
1.878967
1.878749
1.070251
1.893005
1.322021
1.086494
1.404724
-4.676819
2.829895
-4.122314
4.901497
3.197325
-3.554382
4.598851
-3.626099
-2.189330
1.826738
3.690491
4.934082
-0.015564
-4.736938
2.822266
0.910950
-3.510743
-1.207275
4.058838
-1.145935
-3.684350
2.473556
0.866699
2.039490
3.574686
-2.936401
-3.020325
-2.915344
0.057811
-2.264099
0.529785
2.801208
4.609680
-3.427124
3.745946
2.321560
3.241252
4.302368
3.531494
2.760927
-3.377380
-1.510926
3.233948
0.872498
-1.378479
-0.473938
0.909223
-0.232544
3.171387
1.022949
4.443664
4.756601
2.615810
-3.850403
-1.289978
2.959732
-4.839172
-3.501587
-4.792077
-4.393921
4.314575
-4.985432
-0.154114
-2.979126
-1.932272
-0.328369
-2.370605
-0.557868
0.884399
-0.905457
2.317505
-2.274171
-4.411926
-2.716253
-1.426392
2.800293
-0.844071
-1.484680
3.598595
-1.456283
-0.978699
-1.027527
-1.996460
0.130920
3.465881
-2.824722
1.305542
-1.034892
3.588867
-0.839844
2.371521
2.427979
-0.216064
0.351566
0.111389
3.334045
0.490112
0.555811
4.738159
-2.886963
-3.961487
3.666077
4.909985
1.780130
-4.587142
-1.365051
1.059875
-0.832582
-1.292700
3.278503
0.231018
1.664429
3.260193
-2.522583
2.728881
3.539466
-4.215088
-2.668152
-4.097900
0.727844
-0.872803
-3.193339
-4.636841
-1.343994
-4.352417
-1.351929
-1.034854
1.323242
-4.473594
0.412448
3.846333
1.546631
2.597259
-1.326292
1.838684
-4.078393
-4.135132
-4.281040
3.605042
3.766800
-1.433105
2.674866
-3.267822
3.834910
4.172058
4.186401
-1.826477
-1.252747
0.550537
-3.817444
-3.691079
-0.607371
1.075134
4.134857
2.924566
0.708626
-4.849548
2.682129
0.609650
0.883179
-3.974915
3.415828
-4.718933
4.263932
-1.294556
2.586670
0.195618
1.343994
-4.223379
4.455302
0.684814
-4.419795
3.937988
3.376857
-4.414978
0.211181
-0.896912
-0.438469
-4.547424
4.978638
2.804871
1.103211
2.840950
-3.668825
-2.205200
-1.520839
-4.593201
0.317384
-4.387251
3.049011
-4.192200
2.221680
3.864746
-3.588257
0.946655
2.001342
-3.698425
1.686707
3.635864
-0.417138
3.003951
3.775330
-1.663818
-0.942526
4.182129
-0.129395
-4.164429
-3.947926
4.461365
-3.123779
-2.755432
-3.324280
1.651611
-2.718593
2.591640
3.223247
-3.289795
0.054932
4.533999
4.524841
-1.636048
-1.876831
1.887207
-4.141235
-0.015259
-1.015521
4.300232
-3.047180
1.565552
0.068359
2.380502
2.487026
4.602051
-4.728088
4.160903
3.960266
2.700195
4.372046
3.091125
-2.931824
-4.298786
2.217102
-2.209778
3.581339
0.257568
-2.282410
-1.043403
2.053528
4.308472
1.944580
3.747863
-4.312134
-1.141851
4.113770
2.736816
2.629134
4.387817
3.693199
0.364395
-3.471375
4.695435
-0.362244
3.197937
2.215271
-3.506179
3.392639
-2.653850
-4.793091
-3.044128
-2.769165
-0.477295
-0.751038
-2.591550
4.483032
2.892456
0.888977
-4.148473
3.225098
1.973572
-4.834290
-3.861694
-0.014026
-2.094077
1.474260
-3.368530
-4.962769
-1.192079
3.646875
-3.861389
-4.174805
-4.278564
3.475342
-0.048828
0.114440
-0.534326
1.242981
3.790284
-4.604187
-1.464844
3.153381
-1.556987
-3.869629
3.862610
-1.104736
3.127136
-4.614565
-0.082397
-1.101097
-0.331265
2.431843
-1.704712
-4.864594
-3.187559
2.843933
3.601356
4.865112
-4.778782
2.721558
-2.853989
0.447693
3.364563
3.504028
-1.514211
-4.147949
-4.344177
-0.969849
1.012878
2.354736
0.634766
1.350425
0.093007
3.437195
2.844879
-3.146601
1.406563
2.621155
-4.472412
-0.551544
-2.206726
3.359985
-2.817082
1.767883
1.132218
-4.961243
0.004272
1.994934
-1.126709
4.156138
2.158244
-3.191834
1.234502
4.728699
3.255092
-2.340088
-1.529236
-2.969971
4.194099
1.729431
4.378662
-1.351013
0.233155
4.081490
-4.137880
-2.992249
-0.267788
3.042297
4.012147
-2.633406
-3.652344
4.007874
-2.989502
-4.699402
-2.211304
-4.508667
0.159606
-2.003784
-1.548767
1.728821
3.353919
2.916060
-0.764465
4.750977
1.275492
-1.404419
2.064514
2.035828
-3.156300
-4.306641
2.014160
1.368408
2.568970
3.536072
4.853734
-0.558079
1.242961
0.127563
2.807007
-4.038084
0.100403
0.328979
-3.645630
-0.786743
-0.377502
1.061096
4.868573
-4.336853
1.761475
-2.380981
3.952331
-0.848257
-1.762852
0.162354
2.156982
1.816848
4.032288
4.443665
-4.973657
3.186340
-3.526306
-4.178547
-0.373535
-1.083069
-4.858297
0.739441
-4.174194
-4.162910
3.191223
4.371033
-0.112305
4.844970
4.653625
-0.917547
-4.600220
-1.974182
-0.752518
2.294006
-3.969154
2.159439
-1.212769
-2.213135
-2.630615
4.166260
-3.722534
0.031419
0.731506
1.109578
2.675171
4.980469
-3.242492
0.479431
1.757813
-3.224179
1.603088
3.156433
-1.645203
4.294825
3.543701
4.564514
0.270996
-3.374329
2.798779
-3.409995
-0.782515
1.532288
2.392273
-3.780275
1.032434
-4.035034
2.861938
2.665711
0.672913
2.691345
-1.372987
-0.464440
1.795959
2.096558
-1.170959
3.438110
-2.937927
3.193684
0.458679
-3.904724
-1.343994
3.125305
-3.420107
0.680847
4.822365
-1.506192
-2.534588
-0.213013
2.528900
-0.908812
-2.559204
-3.918786
1.900024
-4.165684
-4.696960
2.411514
1.796570
4.351807
1.033936
2.649607
3.417053
-3.162842
-3.288269
0.722656
0.672913
1.214905
4.379600
-2.416758
3.582764
2.511627
-1.319208
-4.973136
4.689636
4.816223
-2.745452
-4.102478
3.858032
-1.883244
-3.899536
-1.525558
1.761169
-0.720520
3.777161
-4.100952
-2.626394
0.389445
1.166076
-2.091914
-0.230408
-4.955968
0.275879
-4.471436
-0.419312
-4.959038
-0.327148
-3.848267
0.352478
-2.445678
-0.680778
0.054320
-4.811707
-3.501430
3.083801
-4.921264
-1.042829
-2.888489
0.386963
1.025391
1.305237
-1.885071
-2.962036
0.311583
1.059265
0.015564
-4.166260
-3.533593
-3.166398
4.108582
-3.922729
-3.017111
4.841003
0.946045
4.379578
2.323436
-1.712952
2.432251
4.622192
-3.036194
-0.158692
-3.403712
-0.137242
-4.832784
1.393127
-0.899353
4.199526
-3.130798
2.064514
0.553894
-3.199768
-3.903809
-0.432434
3.677778
-3.081970
-2.056885
-4.744568
-0.563660
1.703012
-3.981785
-1.824646
-3.934021
-4.803330
-3.277893
-1.560974
0.192664
1.198730
2.006226
-4.794697
4.453125
-2.265625
-2.898763
-0.292358
-0.866394
-3.973396
-4.956360
-1.726379
4.630432
1.778869
3.827820
-3.756292
1.020203
1.379395
-1.043351
-2.386780
0.469933
1.447159
-3.272400
0.699768
0.991821
3.524170
0.599975
-4.338699
-4.310913
2.770344
-3.132324
3.554077
-3.450012
2.650146
1.328125
2.635806
-3.142395
4.245911
3.456726
2.082911
1.272583
1.969910
-0.336304
-1.530457
-2.343433
4.487954
2.197831
-4.691772
-0.305176
3.072447
-4.767737
0.971680
4.384460
-4.608765
4.860840
-4.695129
3.443908
-2.453881
4.074097
0.242310
2.716675
1.999817
0.100708
4.708272
-1.379395
4.712219
4.852295
-0.662537
-4.287112
-1.543579
-4.470542
0.605319
4.434407
-4.033508
-3.259980
1.181947
3.073730
0.227942
1.034241
4.572414
3.074341
4.919754
-1.528931
1.734924
1.650085
2.547679
3.351135
-1.454163
0.867615
3.968811
-1.888123
-0.597839
-2.801491
-4.691233
1.882324
-1.888397
0.604315
-2.572929
4.953613
0.695739
-2.601715
3.727417
-4.232483
0.650020
-4.658203
0.347611
1.985168
2.175598
-3.910217
-4.152527
2.206675
0.844767
2.967529
3.902348
-0.119019
-1.442479
-1.197205
-4.085999
-3.980713
1.460029
2.650147
-2.797241
2.197876
-2.814331
-0.560234
4.098814
0.486450
1.362461
2.062378
4.898683
1.834368
-1.336975
-1.394653
2.483215
-0.601196
-0.985107
-3.953552
1.409606
-1.343689
3.776550
2.224426
-2.713586
0.358077
2.695313
-3.503723
1.217203
-1.419983
-3.341675
2.690735
-2.658863
-0.501404
-3.352356
3.490905
-4.375305
3.630066
4.201573
0.274135
-1.171590
-3.000793
3.689880
-2.322996
-4.707031
3.453674
1.721497
-3.661194
-3.789368
4.462585
3.984174
3.901367
-0.342102
-1.998291
4.874268
-2.685721
-0.451817
3.080139
0.105591
-3.904282
2.124329
1.474915
-2.264001
0.474243
-2.118530
3.217388
-1.728516
3.402405
1.663920
-2.481995
-2.380981
0.587151
-0.988159
-4.679871
-4.060364
-2.401124
0.839539
-4.352605
4.938049
-2.084351
-4.538224
1.810913
-4.431190
1.575943
-0.437012
-0.962219
0.920105
-2.507019
-3.304749
0.583787
4.661865
-0.462688
-4.210205
3.284912
0.372010
-0.373230
-2.383728
-0.513302
2.056580
-2.290955
1.949158
-3.216161
1.171875
1.657105
3.271790
2.160339
0.463879
-2.855185
-2.170455
2.081604
-0.064392
0.964903
-0.182776
-4.891663
-4.743042
-2.951050
-0.318298
-1.407471
3.928832
-0.746728
1.857300
-3.983459
-0.489197
-0.202026
-4.432068
-3.489665
-0.767822
-2.066345
-4.311829
3.324280
-4.709780
-2.951660
-3.034080
2.106784
-4.842022
-4.873047
-0.786225
-2.956236
1.190185
-2.883019
-3.382568
4.175381
4.900208
3.459793
-1.970520
0.832215
-3.876038
3.581004
2.633667
1.307373
2.476501
-0.711060
-2.776489
-4.690247
-0.639626
-4.672923
-1.155701
1.589691
-4.168024
3.493355
0.302734
2.625671
-3.176666
-2.630310
1.398621
2.153316
-3.572693
2.947404
3.692627
2.307129
3.609619
3.513489
1.621348
1.090129
4.580993
3.561162
-2.238159
-1.729039
2.800598
-0.117493
-4.898682
-0.363701
1.702576
4.755554
4.046631
-2.794800
0.423958
-0.198671
-2.933655
-3.399807
-1.703796
4.716187
-1.258284
-1.896362
-2.932739
-0.064392
3.961792
3.261719
-1.592102
-2.716371
2.358398
3.098755
4.775391
-2.324792
1.283065
-0.000610
0.288696
-0.100851
-4.162292
-0.471191
1.481018
-0.233326
-2.171021
3.844604
3.308716
3.023376
2.641296
3.258580
0.693752
2.204570
-4.255676
-2.501221
1.122133
0.325623
-2.705078
3.249207
-2.001953
1.320496
-2.569275
-0.492144
1.080322
0.760193
0.101318
-2.619629
3.307016
-3.744664
-1.756592
-4.261780
-0.102097
1.414795
-1.881104
-0.561425
-0.078430
2.499390
-4.393696
2.011719
-4.440918
1.765543
2.385254
-2.163086
-0.536811
-3.173523
4.451294
-1.889343
-4.475099
-0.643005
1.377986
4.389343
3.153076
3.414352
-1.355896
2.943382
0.990921
-3.783264
0.830688
-4.074097
-0.628967
1.217346
-0.988174
0.996704
-2.130473
-2.794189
-0.470886
-4.032898
-2.558899
2.624207
-2.644345
0.028381
3.280029
-0.894470
1.717921
-1.878662
-2.331238
3.315430
-3.177795
0.015271
-0.864829
1.159013
-4.512634
0.656738
-2.367922
3.385950
-1.497803
3.348083
1.244812
-3.170471
-2.482300
2.322082
4.744300
-0.158691
4.284668
-3.725281
-4.879761
-3.191528
4.024068
-0.585327
4.920654
-0.002747
-4.043579
1.597898
-2.138977
3.272683
-1.913907
4.106343
-2.138367
-3.447968
0.554811
2.619934
-3.679833
-4.608459
3.121609
3.997803
-1.871017
3.825073
1.969299
-1.662903
1.480174
-3.912964
2.195435
2.967224
2.653198
4.716492
-1.207886
-0.116250
-0.711741
0.039673
4.747955
3.181829
4.804696
-0.213318
-1.584839
-1.762786
-2.745972
2.945862
-1.825871
-1.410522
4.150712
-3.083191
-2.590332
3.143616
-2.107849
2.030284
-3.227193
-0.829468
2.775639
2.483826
-1.930150
3.333130
-1.965943
-2.209168
-4.039239
-2.926636
-1.963806
3.745728
1.324768
-2.109306
4.490355
-2.971497
3.731846
3.527832
1.098939
2.487444
-4.194031
-0.726013
-4.027405
-2.916565
-2.412720
-2.803345
2.109679
-0.165710
3.208923
-3.381958
1.256446
1.323653
-1.805420
3.745728
1.422587
2.522583
-0.105591
1.571350
3.596630
-3.945313
-1.027832
-3.336182
-2.702637
0.144958
4.737462
4.391567
1.399516
-1.783142
2.138977
-0.665281
-0.627441
3.851928
3.231506
1.849976
-4.906616
4.954834
0.919599
-1.644898
-0.978699
-3.778381
-2.161255
-4.108756
0.380703
3.968811
-1.948547
-1.892258
-4.518433
2.391357
4.512427
4.098511
-2.439270
-4.712910
0.450439
-3.424377
-1.607259
2.441101
-4.053955
1.032708
-2.754822
4.359436
0.248718
2.452392
-3.243103
-4.991338
-0.120544
0.918579
2.258651
-3.857117
1.990318
3.307816
3.632813
2.262268
-4.754028
1.608582
-4.206848
0.781846
-3.886108
-4.522441
-2.228699
-4.147949
3.376465
-0.224915
-4.152832
0.279239
-1.320190
4.457397
0.979309
4.475489
-4.070435
-2.644958
-4.135132
-3.476868
-2.653491
-2.603415
1.945451
2.417297
-1.005554
-0.754152
1.638513
0.542297
3.595886
-3.891296
-3.720703
-0.547180
3.441467
2.274818
4.587708
3.016053
1.212158
1.781311
2.798157
1.947957
1.524048
-4.727173
0.938721
-3.969727
1.006467
0.770264
-3.930686
-4.656217
-0.267437
0.762329
-2.421357
-3.912962
1.793823
1.668677
-4.804687
-2.211033
-2.116089
-2.558884
4.075623
-1.639099
-2.379761
3.591990
-1.142883
4.602661
4.497681
4.095459
0.418701
2.207642
1.237815
-4.082713
-3.399658
-4.838837
-1.658869
-4.922782
1.880798
-2.084107
3.838715
-1.211243
-3.625183
-0.368351
-3.548889
-3.532394
-0.543518
4.743347
1.015015
-4.533691
-1.673330
-1.921346
-2.082825
3.802861
-3.176880
0.117885
-4.996948
-4.457703
4.826050
-0.166558
4.550171
1.237183
3.503418
0.204468
3.087227
-0.488283
-3.222656
-4.889064
-2.676392
1.484986
4.294695
1.628723
2.647705
4.598999
-3.862610
-2.905273
-0.740967
-2.602235
4.862671
4.496155
1.496887
1.829261
4.683944
-4.247437
4.526672
4.597330
3.793640
-3.352356
-4.252930
4.347362
-0.791931
2.578735
3.796081
-4.417419
0.621643
-0.832301
2.937099
-3.002644
2.492065
-3.202209
-4.160154
4.606628
0.310058
3.141174
1.967468
-2.900085
1.159668
2.726850
-4.616699
4.438782
3.903198
-2.337341
-1.207144
-3.389744
-0.689697
-1.560974
-2.792222
3.902588
-4.560547
-0.985925
-1.083069
-4.653015
-1.430134
-4.414368
-3.503723
-3.183187
-4.884338
1.569824
-4.236457
-4.386597
4.469299
0.589600
-4.523622
2.364197
-1.317327
-1.240234
-4.605713
-1.994584
-1.192017
-3.002052
-3.884262
-3.807678
3.201599
-3.127747
-2.496948
-1.528320
-1.382766
-0.879211
-0.457195
3.452759
-1.225586
-1.086425
2.640076
-3.340759
1.111453
-3.086853
0.973511
2.574158
-3.109960
0.196838
-4.312439
-4.542847
4.997253
2.109387
1.735269
0.492509
4.748840
-4.901428
-4.413820
1.808496
-1.990051
-4.394531
-3.191223
-0.903931
-4.056091
-4.933472
1.337318
-1.106873
0.703431
-3.908997
-0.930481
2.920837
-2.656840
-2.122192
4.106445
-0.785828
-3.510742
-0.067446
-0.387573
-1.903709
2.356113
-1.850383
-4.056702
-0.641266
-2.074583
2.306824
4.353614
2.539063
0.346950
-0.916443
4.295975
-4.076538
-0.743408
-0.417175
-3.154531
-2.599487
1.878662
-4.500122
2.956543
2.162781
-4.798584
2.953819
-2.453074
-0.239258
1.380035
-1.963129
-0.431205
-3.245544
-4.012513
3.328156
-1.138611
-3.426208
4.663082
-1.169128
-1.176742
3.147278
-1.333008
-2.556458
-2.984009
-0.134328
3.808329
-2.045899
2.213811
0.426331
4.600612
-4.729309
-0.190735
3.168640
-2.683343
1.739502
4.232178
-4.616699
3.304749
-1.430595
0.712889
-0.762024
-2.493435
1.881104
4.341737
-4.151045
2.457275
1.096191
-0.769348
-1.023865
3.381653
-4.028625
-4.414979
-4.802246
4.196472
-0.904846
-2.501794
1.607467
0.227051
-0.739441
-0.750875
-1.697693
-2.340698
4.321594
3.136730
-3.724060
-4.868469
-2.335205
-3.998108
-1.531372
-2.230006
-2.673558
-1.637898
4.431763
-1.025085
2.022707
2.803040
-4.175721
0.278625
2.546387
-4.707642
4.085388
4.570112
3.604126
-3.305359
-3.125000
3.051453
4.152048
-2.360386
4.848633
1.107483
0.868667
4.371948
-4.675293
3.529456
3.701172
-1.533203
4.392925
4.759827
-2.532654
-1.844076
4.146423
2.915344
-1.335456
4.344177
-3.767090
-4.344788
1.542357
-1.607971
-1.116216
-4.582825
2.299805
-4.315140
-1.504517
1.012230
-3.921798
1.583252
2.312927
-4.667358
4.802551
3.338318
4.291672
4.559631
0.979268
-4.540405
0.080261
-0.808410
-4.312744
1.466064
3.072513
2.199097
-4.348145
-0.216064
-2.044286
4.622803
-2.582703
-3.381653
3.344727
3.921826
3.686257
3.611711
0.060425
-4.605713
0.290770
3.074976
-3.387146
1.970520
-1.947632
-1.230774
-1.543274
2.702331
-1.404992
4.560547
2.576599
-4.746094
-2.001038
-0.422363
3.936482
2.709656
-2.130127
1.863708
-4.424438
0.011289
-2.964783
-1.167625
-1.807095
0.338337
3.782043
-2.874237
2.283937
-3.273316
2.185950
0.027161
-2.859531
-0.705261
1.796280
4.300232
0.657349
3.292542
4.466319
-4.167175
-4.934692
-1.614685
-1.723022
-4.668579
0.126953
4.421104
0.806813
2.821960
1.199066
3.997564
3.151864
3.450623
3.038879
-2.680145
-3.253479
2.446899
-3.858342
-0.939331
3.263871
2.056885
-2.621155
3.583984
0.969543
-1.732839
0.652201
-2.234497
-2.716914
0.111084
0.659877
-2.616577
0.710449
-0.582886
4.709236
-2.830505
2.059021
3.738708
-4.823303
-0.201652
-1.491091
0.351257
-1.187587
4.578552
-0.250854
4.095110
4.417419
-0.190125
0.227661
-3.197632
-4.242554
1.366577
-3.417054
1.398010
0.770569
0.570374
4.307593
-2.014970
4.136963
3.015747
2.685099
-4.584045
4.466248
3.210144
2.277660
-4.772339
2.771606
-4.595032
3.365784
1.933899
3.774022
-4.098423
0.519389
-3.612976
-3.399048
-2.651976
1.188660
-4.327393
-3.554688
-0.269165
3.233337
-2.864685
3.733320
-0.615234
-0.081177
-0.624390
2.412720
0.328806
-3.216709
-1.967468
3.796387
-1.180588
-0.751648
-0.837097
-2.347924
-3.696899
-4.886475
-1.984638
-2.551575
1.004333
0.926005
-3.869629
-0.222473
3.547051
-3.442383
4.212646
-2.743835
-3.079835
-3.688354
4.184382
3.690491
-4.106445
1.832931
-2.254944
-0.261879
-3.190292
4.665527
4.234619
0.071411
2.049255
3.289490
-3.870864
-1.311951
0.534932
3.375549
4.361877
3.925782
-1.246033
-4.558716
1.662906
-0.252075
3.442383
-1.083069
-3.396520
4.860840
0.195007
-3.298950
-3.825684
-3.774097
-0.676230
-0.730025
-0.286560
-1.470947
3.671507
2.374597
1.993713
-3.831482
-1.104431
-2.446289
-1.718445
-0.674744
1.531714
-0.964661
-0.816955
0.679321
4.977722
-3.092957
-1.946086
4.330444
-0.782166
-0.203247
-0.988770
3.490903
3.757019
-3.377098
-2.364041
-1.489361
-0.079651
1.260284
3.681032
1.783752
2.324195
-0.469971
-3.655735
1.148682
-4.968857
1.628418
2.305298
-1.742554
2.428355
0.627136
-2.113037
3.565369
1.026611
-0.458984
3.134766
4.448570
0.684743
-3.035278
1.469147
-1.991816
2.911995
-4.971924
2.027526
-4.689117
4.548340
-1.222534
-2.251896
-1.983032
3.355119
1.045227
-2.796631
-4.983826
-4.867249
1.870982
2.153971
-0.450440
-1.621028
-3.474426
0.166408
4.044495
-4.106140
1.241455
3.482124
3.995361
-0.504456
0.638428
2.986756
-2.570122
-2.329408
-4.017639
-0.274501
1.961060
1.616212
-1.690718
1.746521
4.653015
-0.021057
-4.606323
-0.618896
-1.502686
-2.403871
-3.088989
-3.724060
-0.177917
-1.447412
-3.654069
-0.517273
-0.454712
-1.161947
4.406738
-3.872375
4.381714
-0.869007
2.065430
-0.437927
-0.368347
2.366028
-1.527405
2.803868
0.086147
-2.492696
1.706848
2.071228
0.812685
3.672791
-2.927246
-1.767883
3.776245
-4.226074
1.795654
-1.035052
