17 9 6
-4.877847
-0.107438
-4.149885
4.430795
0.495618
-0.849790
-1.505246
3.316770
3.228149
2.302584
-2.872848
2.997091
2.580300
0.305041
-2.646775
-4.852370
-4.088120
-1.355591
-3.524771
-3.608024
6.014919
-1.081333
-5.371376
-5.639952
-4.916455
-1.843619
0.316467
0.817320
0.541599
-0.011406
-2.434204
1.484407
-0.453991
-1.484726
-5.054191
1.076660
2.836937
2.758556
0.198680
-1.540458
3.551006
1.579909
4.556506
4.238881
0.393372
-3.576660
-0.379333
-2.646790
3.622131
-2.904053
2.796326
3.436279
4.967651
4.996643
1.220457
-1.551602
-3.420830
-1.123780
3.255342
-4.724316
-1.247299
-4.698356
1.771851
-4.439711
-4.911807
5.317581
-3.219464
-3.624835
0.878894
1.908264
2.771565
2.264709
-0.146766
-3.213734
2.437144
0.124582
-0.628987
3.804641
2.441943
-3.935252
0.990295
-1.314993
3.003240
0.497386
0.759246
-1.008416
-3.484497
-2.749026
-0.732702
3.028564
0.276548
4.423740
1.432380
-0.640992
-3.456083
1.611134
-0.087021
-4.989188
1.997375
0.047913
-3.525085
4.495544
-3.584290
4.050903
1.928711
-1.969604
-0.734558
-4.296265
4.665833
1.831665
-3.467712
3.772278
3.216553
0.820313
-3.086548
-3.221130
3.171692
-0.141848
-3.920376
-1.043816
3.223449
-1.090056
-2.166027
0.681412
1.197640
2.558289
2.049861
0.406497
-3.231969
-2.264906
2.371143
-4.649060
0.166624
1.041244
-0.737915
-4.116484
4.879227
3.621481
0.970803
-1.370374
-0.969529
-1.252517
3.467422
-1.831360
-1.373238
-1.885269
3.532843
-0.881757
2.215566
1.273312
-1.540706
3.214107
3.394165
-1.538158
-0.764236
3.581718
-4.832847
4.597816
0.785085
-4.472213
-0.179807
-4.524379
2.856026
-1.221325
2.892127
3.406284
3.587514
-5.769916
3.450117
4.099225
-4.701086
5.268491
-3.820906
-0.039337
-5.789742
1.806836
4.999370
2.438554
-3.102107
4.018321
-3.572524
-7.073328
-1.033761
-5.549073
1.460204
2.664087
-3.240448
-4.438874
0.473542
-5.058132
-4.102067
-0.575455
2.469644
1.740254
0.443021
-5.014190
-3.853405
-4.382126
-0.254294
0.220433
-3.756062
4.444361
0.695252
1.975151
9.518391
-3.272076
1.930525
