17 11 6
-4.744529
0.678040
-2.246467
3.008396
0.135703
0.606508
-2.050445
4.472864
2.243341
2.464946
-3.258972
3.830755
3.125911
0.868566
-2.038904
-5.347235
-4.082174
-1.472449
-3.956193
-4.369072
4.884090
-0.543213
-3.562408
-6.321935
-4.967530
-1.299822
0.827235
-0.669501
0.331548
-0.020374
-3.743452
1.629316
-0.492249
-1.480483
-5.067976
1.897620
2.832693
1.813480
1.006624
-2.351847
4.703765
1.735698
4.558700
4.256897
0.637932
-2.895952
-0.379743
-2.725298
4.120258
-2.904083
2.614329
3.005488
4.513686
4.995784
1.114807
-1.075745
-2.337952
-2.027283
3.401184
-4.762573
-1.241455
-4.073792
1.771851
-4.437866
-4.912109
4.187622
-2.242812
-2.909468
1.699866
1.911367
2.163517
3.072664
-0.522013
-2.002168
1.906291
-0.315567
-0.420532
4.493508
0.394817
-3.973467
0.990295
-1.135125
0.968712
0.585566
0.062821
-1.338498
-3.484571
-2.749023
-0.504036
3.709273
0.170489
4.821089
3.013385
-1.544525
-3.492238
1.142085
-0.535142
-4.365483
1.997375
0.044936
-3.184680
5.229328
-3.584541
3.055701
1.932566
-1.904466
-0.733044
-4.870306
4.665833
1.831665
-3.469314
3.133928
4.037513
0.820059
-4.298885
-2.413176
2.800435
0.696807
-3.975361
0.039047
2.319946
-0.944214
-2.204285
0.687256
1.822205
2.558289
2.218933
-0.247192
-3.769836
-1.322021
3.346558
-4.649048
0.169983
1.629639
-0.737915
-3.953247
4.493103
4.213562
0.495300
-1.540222
-0.282898
-1.250305
3.469543
-1.832961
-1.077497
-1.460229
4.829153
-3.234432
3.199617
0.301351
-2.095857
2.082073
3.394150
-1.023560
0.008109
2.192437
-4.047790
4.945732
-0.256853
-5.872221
-0.125662
-3.718929
2.904355
1.267321
1.575928
-2.779962
4.442439
-3.033411
-3.979517
1.933954
-1.855612
4.293543
-2.568559
-2.664970
-3.598271
2.330627
4.276386
0.776635
2.581431
3.153633
-0.784694
-3.115545
-5.489989
-4.255903
2.020401
2.642898
-2.894287
-8.345147
-1.013254
-5.476418
-3.871385
-1.933488
-2.672163
3.299479
-2.992955
-8.793189
-4.551014
-4.255824
2.191029
-1.441581
-4.442967
1.502374
-7.497027
-4.655786
4.075488
-1.839058
0.799752
-0.236256
3.118626
5.200747
-2.590518
-1.546802
-3.967354
1.659066
-1.493867
6.335606
-5.926623
1.311415
-4.522195
3.359092
1.531183
-5.338183
4.601186
-2.093762
-2.694518
2.632196
-0.841127
-2.913330
1.261813
1.432585
-0.256566
1.856618
-0.795501
2.052834
3.475983
1.733247
2.354737
-0.482409
1.819878
-0.441401
-4.257457
4.289212
1.192152
-2.354222
-1.568030
-1.251069
0.923086
3.681754
1.428388
-7.908699
0.947732
-2.417740
2.081802
